encog,BasicNetwork,java,3.4.0,1,1744373758468
[BASIC]
[BASIC:PARAMS]
[BASIC:NETWORK]
beginTraining=0
connectionLimit=0
contextTargetOffset=0,0,0,0
contextTargetSize=0,0,0,0
endTraining=3
hasContext=f
inputCount=101
layerCounts=3,33,65,102
layerFeedCounts=3,32,64,101
layerContextCount=0,0,0,0
layerIndex=0,3,36,101
output=0.4082756565,0.1834486871,0.4082756565,0,0,0,0,0,0,0,0,0,0,0,0,0,0,0,0,0,0,0,0,0,0,0,0,0,0,0,0,0,0,0,0,1,0,0,0,0,0,0,0,0,0,0,0,0,0,0,0,0,0,0,0,0,0,0,0,0,0,0,0,0,0,0,0,0,0,0,0,0,0,0,0,0,0,0,0,0,0,0,0,0,0,0,0,0,0,0,0,0,0,0,0,0,0,0,0,0,1,0,0,0,0,0,0,0,0,0,0,0,0,0,0,0,0,0,0,0,0,0,0,0,0,0,0,0,0,0,0,0,0,0,0,0,0,0,0,0,0,0,0,0,0,0,0,0,0,0,0,0,0,0,0,0,0,0,0,0,0,0,0,0,0,0,0,0,0,0,0,0,0,0,0,0,0,0,0,0,0,0,0,0,0,0,0,0,0,0,0,0,0,0,0,0,0,0,0,0,0,0.5789473684,1
outputCount=3
weightIndex=0,99,2179,8707
weights=##0
##double#8707
   -39121721747.77177,-179390398648.99448,176852698248.96732,-6348969450589549000000000000,-185775963332.23123,-78144161455.05653,13543598704.148695,-83836080997.98286,-46235074978600010000000000000,369698782465.23553,-42322797835.30387,45780053658.19084,-13758531268.673903,-100588307051.02007,17911747810.5799,120063224925.50566,90899427473.08896,426651116132.4987,-53200600671588610000000000000,-63327749985.29471,132099584472.1564,-5915079988.102641,-26897872419.50659,-11023666817.54348,131095875196.80826,368184599443.6326,-7507744722523231000000000000,80469461036.16805,-723903844.2124637,-16994844676.980453,-8138492436156377000000000000,-199154364025.2558,0.9931528206,81682018091.47322,374548182753.33325,-336419034079.0692,13791670223924450000000000000,387880566656.50336,163156745740.4249,-25763376071.345364,175040871834.98795,100435025218787300000000000000,-703261566481.472,88365526484.0739,-87085355739.83487,28726358428.804234,210017748472.4293,-34072728298.92417,-228390928406.26144,-172913936550.43768,-811599466352.2509,115566021523242930000000000000,132221645306.1861,-251287165973.66266,12350061393.76169,56159913246.510605,23016250657.15836,-249377849695.2608,-700381192653.7753,16308841953686628000000000000,-153073480025.60245,1511434624.2991054,35483438553.03388,17678995728818562000000000000,415813252459.26373,0.1931452397,-42560296343.2491,-195157784102.51395,159566335829.6351,-7442700773334894000000000000,-202104603324.09784,-85012584284.35027,12219777369.233383,-91204790838.78143,-54199950240187350000000000000,333562784016.20233,-46042728649.135216,41305302083.745125,-14967827158.861015,-109429441420.68425,16160980487.498024,108327703481.1331,82014509077.49973,384948350219.8373,-62365420851654320000000000000,-68893895319.51817,119187581501.95251,-6434981406.498879,-29262040825.71343,-11992583839.032593,118281974497.52834,332196593211.7812,-8801097231163408000000000000,72604018988.9523,-787530781.493659,-18488593875.659943,-9540503292662204000000000000,-216658888434.18646,0.9931528206,-1.604924093,-1787328.5129006945,-10190217.082358336,-7834790.377496386,-0.5928560797,-8433569.528794058,-4705804.444066698,14.7045004647,-2.1894307962,27187851002499447000000000,-0.8906432106,-1.0427758311,0.1956286917,-18217213.231309272,-0.2579232724,-6791318.787219013,-1.0138454112,0.0198138814,-6480535.110250722,-1603830.9765135332,-44374.8024606546,-0.5453516292,-4055392.5655999742,-1.3857228837,-4.3969815425,-3448866.8371475707,-2.4207694349,-1.331589454,190465790597046100000000000000,0.2293209285,0.081272584,-6.1558504357,-8223431.325375059,-958021.6437811002,-0.4289783757,-0.6372528794,0.3514779416,-21.112820033,-7210466.467076597,-1.538211692,-2.0852933179,0.4600333415,-4.2609674392,-622991.5133721943,-290624.2042368178,-2172150.943509834,-6839474.146803937,105194622749476730000000000,0.1939574753,5480032580643411000000000,-2.8453732256,48.388050498,0.1634604321,0.5974722511,-6.5868561352,-1.2963748081,0.8490241539,-2.4399710326,-164848.1042088478,-6233286.666408002,50960773444186185000000000,-2.2795412018,0.4040877437,-2697107.6729119318,-46744681707.00156,-0.2224674883,-8296911.686869033,-47303732.77768667,-36370118.9868064,0.191043515,-39148868.539923206,-21844663.55614668,78.4034686255,0.1748334761,124668322647309100000000000,-3.3613959823,-0.0752984123,-0.4779332559,-84564589.18716861,0.5424485777,-31525680.662525803,0.6524114141,-0.0712162426,-30082829.918802056,-7445126.470763845,-205977.9358274791,-0.4510475182,-18825372.09127275,-0.0105959898,-1.3108887073,-16009786.3964999,-0.1594725236,-1.4422980831,873369897210500800000000000000,0.1950450659,-0.1434775738,-2.1469372183,-38173341.1196382,-4447655.969834459,0.2979644697,0.3895816026,-0.9408782328,-93.5467281997,-33471483.94483817,-0.1349356468,-1.1673204448,0.8121173408,-0.9945325807,-2892111.61721514,-1349545.3234101778,-10083640.275563413,-31749405.917671453,482363875265024800000000000,0.2232039238,25128373324490092000000000,-0.9393837445,216.9637716837,0.2396112452,0.6486299388,-3.3075609373,-0.2410389319,0.1172560655,-1.1629363193,-765305.2233057591,-28934761.038202055,233677687343223980000000000,-0.5357367776,-0.6281822111,-12520128.357314883,-214345041856.54974,0.526164194,59844688.75445242,341196483.6068464,262333579.92887476,0.4744492777,282376324.80691755,157563095.17940718,-575.2811798395,0.4842264669,-93388735527077070000000000,7.6942415417,0.0234536009,-0.2069640555,609954700.121211,-0.4110564597,227391153.83421314,1.286721569,0.9548873992,216983991.7767488,53700834.55731295,1485689.4321600408,0.4439372981,135785284.25363728,1.7990661732,1.0870997508,115476770.60698096,0.8353554589,1.0613842066,-654239256647964600000000000000,-0.1617806333,-0.4316748688,2.8300632809,275339937.9067858,32080468.477784846,1.3992723718,0.0893648038,-0.6550922054,-9.9622085847,241426028.84290633,1.7762992216,0.1428203466,0.2345582628,2.71145355,20860475.736331306,9734118.270634003,72732172.62217416,229004836.29474357,-361337600482223660000000000,0.9176402129,-18823602975890930000000000,2.8371259774,-1577.9351920263,0.0864213761,-0.9760771419,3.4433000319,0.0883044603,-0.1862495717,1.8062614395,5520076.499959987,208703074.51406392,-175047384533616320000000000,2.2450868083,0.3356016458,90306285.05978312,-278103711155.6762,0.3811197152,-7382332830.602799,-42091574664.34606,-32390917306.564228,-0.9516258384,-34818664912.84571,-19440372339.74217,-1.6498814774,-0.9798026604,-3885451205434107400,-1089.5692530691,-0.8954675871,-0.0791467444,-75198884195.93011,0.0596065023,-28050506781.273705,0.0787871415,-0.888359704,-26756327383.481224,-6627889538.672611,-183316237.40276754,0.6555188809,-16748856110.304697,-0.0388230645,0.1231761021,-14243248361.725521,-0.7709709008,-1.1820329832,-27219714409431095000000,0.4219396499,-0.0753133214,-0.8266481758,-33949253914.92404,-3980140668.8276014,-1.0802425374,-0.8843691053,0.0744080603,-0.3681155087,-29784451813.01706,0.3764232388,-1.3316646608,0.6520653177,-1.3254968503,-2581115211.97185,-1228371233.6739016,-8993352432.454815,-28257254286.620857,-15033500644210858000,-0.8023309143,-783158594857709820,-1.1435671948,-0.0682294585,0.1210171923,-0.4577616799,-1.3327825275,0.4935389771,0.6796246622,0.2599059608,-690109934.976907,-25717865874.594734,-7282870549721712600,0.0846787931,-0.0583112751,-11138650837.719267,-7892420621534669000000000000,0.046726635,-8578616.261316353,-48909839.55868807,-37604934.526166625,0.4677899882,-40478141.31524354,-22586359.742579296,81.4529248374,-0.557147291,129106005211367480000000000,-2.0749846999,-0.7321761538,-1.3646733519,-87435952.36656766,0.8215524543,-32596088.748755153,0.5209716611,-1.4207245168,-31104271.005679518,-7697907.780829698,-212972.54857082,-1.5226512824,-19464557.726374235,-1.0822543198,-0.8965885488,-16553380.810546877,-1.2314837893,-0.8174896735,904458294668041400000000000000,-0.5175777314,-0.3454117253,-1.3990780444,-39469498.97199677,-4598607.107456328,0.4508092164,-0.66456805,0.7398752441,-96.2908518854,-34607946.26978686,0.3791185725,-0.419319175,-0.5081658158,-0.4489981591,-2990288.114450061,-1395305.5866806156,-10425963.186946392,-32827385.09364044,499534057018821400000000000,-0.674344207,26022840674313285000000000,-0.8753744865,226.3906058747,0.3809230351,-0.1440004746,-1.7964558811,-0.5062310752,-0.4274118073,-0.2919696453,-791280.0695453751,-29917263.30539102,241995657591898970000000000,-1.5111931001,-1.2873799592,-12945231.741950644,-221974848961.4389,-2.5734649308,-3628469.495373837,-20687236.315000944,-15905727.757753141,0.6083757862,-17120836.34831072,-9553275.909245951,31.0630071938,-1.2672601443,54306705401268800000000000,-1.4476374804,-0.4264993512,-1.4872466972,-36982302.71933076,-0.0376343497,-13787040.590412559,-0.4588955903,0.3207709225,-13156021.242506064,-3255965.393893903,-90078.2911079944,-1.2090827262,-8232850.945702896,-1.6105698418,-3.2602044756,-7001511.286838498,-0.333836138,-0.3690479352,380448222186542640000000000000,0.0721609438,-1.2262993617,-6.1410150736,-16694204.847647198,-1945144.7275747657,-0.8147993384,-0.0121710909,-0.2669243785,-41.1321656863,-14638006.749936908,-0.5693208717,-1.4770241296,0.1467762926,-4.3040163769,-1264819.9736840094,-590256.905133339,-4409906.660732684,-13884909.476457117,210122285388729370000000000,0.0211558869,10946158080644072000000000,-2.8453800464,94.134500298,0.8025801041,0.3545559454,-6.1007933825,-1.153518986,-0.9696592388,-2.8300017002,-334700.2193648535,-12653892.625219094,101792219995607400000000000,-2.8053805227,-1.436316955,-5475395.380835767,-93370736010.0201,-0.5019087214,4577391.9975480465,26097384.760509025,20065266.526641987,0.3426326151,21598407.83943578,12051664.456530873,-44.6685279056,-0.5444011905,-7151822576978014000000000,0.0115069024,0.7454063791,-0.4183351747,46654263.97743382,-0.1348273147,17392673.916316424,-0.8322294798,0.8986634555,16596675.990243178,4107457.4459667047,113639.3073905936,0.1269691658,10385930.537419243,0.721537822,-0.4156645411,8832582.654636176,-0.3725989184,-0.1985049005,-50102435374378930000000000000,1.0780861675,0.0232263159,1.0417341022,21060215.459525373,2453703.662358396,0.7855864391,-0.7771195937,0.1395714755,-0.7532663671,18466159.93112685,0.7056289065,0.876753476,-0.8010462657,0.5327062252,1595553.0619386814,744479.0410815935,5563077.789715242,17516075.69355193,-27671671475738236000000000,-0.6684007714,-1441534334770113300000000,1.2558012569,-122.6538559056,-0.7211262099,0.0339734433,0.0900827638,0.650815559,-0.1161371976,-0.5100636951,422208.6519722536,15963331.948760375,-13405340908438722000000000,0.5724436682,0.1293317714,6907338.874583537,-21297516402.219894,-0.294761232,-3885283.5021659913,-22151424.111076474,-17031458.727117926,0.4048624521,-18332629.62514722,-10229432.49240947,36.9839939983,-0.8864708499,58262335502786730000000000,-1.3029383666,-1.0103406203,-1.0919388157,-39599884.90755941,-0.7446805168,-14762858.573379202,-0.3428271066,-1.1667163153,-14087187.309457755,-3486410.9211267876,-96454.7479532952,0.2950445593,-8815554.540998818,-0.150662622,-1.24707211,-7497066.9471069435,-0.5448433122,-0.4289535786,408159578061113900000000000000,0.728551559,0.5895257603,-2.798554834,-17875806.833233107,-2082785.7382788956,0.4110962552,-0.0736003979,0.1883801163,-45.2163742722,-15674047.677515412,-0.2467348561,-0.8336056742,-0.9623458592,-2.3333183132,-1354330.192034429,-632000.9463287254,-4722001.479177267,-14867638.903531883,225427320576225360000000000,0.0149807837,11743462061429430000000000,-0.2559226938,101.1774815668,-0.3653193131,0.1725310912,-2.3345055801,0.8670187729,-1.0193500595,-0.9483660619,-358382.6156021306,-13549543.509665074,109206633492795070000000000,-1.5469073481,-0.2821028534,-5862931.2696399335,-100171739519.49144,-1.4374284064,-53760421370.42886,-306523810555.4708,-235880636069.13394,0.1517892814,-253560241620.46234,-141570778815.26703,-6.487043664,-2.9378104469,-28295052462206853000,-7928.9504196619,-0.9750550495,-0.5779108203,-547621434974.0599,-0.1006993676,-204272429634.13928,-0.305727659,0.2539858744,-194847816618.76907,-48266332948.56959,-1334965298.126481,0.5933005707,-121970328679.14207,-1.8927421176,-2.7927796394,-103723721323.9207,-0.6341159073,-1.8850613941,-198222344457501980000000,-0.14632458,0.1572391168,-6.6187442385,-247228922936.54996,-28984610337.81764,0.0342435081,-1.0792431323,0.2822271141,3.0928896573,-216899551436.41364,-1.2973929782,-2.1860664843,-0.3390337949,-5.5689579342,-18796475969.88255,-8945377780.97485,-65492362381.08285,-205778028707.825,-109478582261314980000,0.100272617,-5703202113758296100,-2.7785863258,-6.5983540132,-0.1772018426,-0.5305602872,-7.2296734023,-0.3870736477,0.6317343892,-2.7679309242,-5025593097.70847,-187285419978.9852,-53036106589300140000,-2.6872543195,0.7567089656,-81115085994.20891,-57474943302084960000000000000,1.2344633114,125098340.3160212,713231438.4613203,548377703.504423,-0.2741580759,590274790.6146756,329367266.8336916,-1203.7211693412,0.8599091316,-195222927081029730000000000,18.3403125118,1.4964557095,-0.8407096957,1275039219.3230336,-0.8239867836,475334686.574729,-0.0397524453,0.9462059661,453579742.5080482,112255328.81521696,3105660.7885917807,-0.2496276488,283843298.98653287,2.3981684596,2.3093971959,241390723.112771,1.4077380365,1.4062026081,-1367643559721409000000000000000,0.7090098989,-0.3479849153,5.896198338,575566048.6297264,67060439.53302243,0.1551671624,0.8472793177,-0.2331476458,-2.5797929806,504672948.7889833,2.4074370039,1.3768077492,0.2025139448,3.4273619362,43606379.33688278,20348003.095547453,152038094.1117325,478707888.1463183,-755352169964040300000000000,0.7223243333,-39349487391861570000000000,2.9980320515,-3301.0302774962,0.6756944755,-0.2753091507,5.8433521987,-0.3111810449,-0.362821748,2.1750402559,11539069.234921629,436269475.27794486,-365924890123638800000000000,3.4719161384,0.8153284161,188774756.10521477,-581357269299.9119,-0.9201090461,-1959317.6483267047,-11170785.398693958,-8588819.486664355,0.7066587003,-9245006.431063658,-5158622.026535793,17.2086761536,-2.3781647648,29412456058882697000000000,-1.1936922475,-1.3084504908,-0.9578784803,-19969927.35629831,-0.7104782351,-7444793.003024978,0.1971070565,-0.3893654893,-7104062.805607441,-1758168.938796809,-48641.6538918394,-0.0516013532,-4445613.35884226,-1.4256362618,-3.6215883088,-3780712.249048933,-1.3538090233,-0.1994753509,206050367722736060000000000000,0.4315307926,0.5773762028,-4.5318454529,-9014635.093094863,-1050321.7767259385,-1.1014819099,0.2237052208,0.7664285383,-23.2123895515,-7904296.183119917,-1.8361247879,-2.5330850657,-0.5482392145,-3.0272587495,-682975.2957367911,-318703.2668007989,-2381260.615917232,-7497630.19495445,113802014692712760000000000,0.3625595006,5928428012372219000000000,-2.2424302347,51.1050466594,0.815383086,0.6066847277,-6.2106822305,-0.662939466,-0.0400250382,-1.5181748101,-180727.9149578871,-6832940.834213306,55130562158664400000000000,-2.2745401713,-1.3071953116,-2956630.603017583,-50569495047.94533,0.2096142943,15487076.537599701,88297489.81791802,67888684.82713342,0.3894411853,73075587.88434479,40775409.16216958,-148.6126569971,1.3041939788,-24174587414023366000000000,2.9123820582,-0.6070881741,-0.7014877555,157848945.54780632,-0.8283786262,58846070.17895805,0.3188695429,0.9394963724,56152840.67741582,13897118.045495877,384478.7656682093,-0.7464672784,35139581.36070305,-0.2356747591,0.4439428745,29883989.37410417,-0.1558695817,-0.3834858357,-169356229209638460000000000000,0.2919379232,-0.7314426989,0.6924026216,71254661.71246797,8301988.5532535855,0.2127154736,-0.1380367788,-0.4028329504,-1.9851698379,62478114.60898526,0.5066470927,0.240306437,-0.3877461142,-0.2944825331,5398423.124049096,2519025.1491775317,18822161.952620722,59263652.7820863,-93535771306147840000000000,-0.1473829924,-4872673701161829000000000,-0.5330403254,-409.2231168301,-0.3570254751,-0.1931402672,0.1268078227,0.2885066748,0.1188244399,0.9321019308,1428520.7819320804,54009871.8645081,-45312727226905755000000000,-0.1426329066,-0.9356715376,23370168.845710207,-71989863054.12114,-1.247247015,-649647.5419156771,-3703872.9183503552,-2847832.5066746706,-0.1128460467,-3065301.380633283,-1710432.308204894,3.4395912316,-0.7606663704,9561565338279155000000000,-0.4748653923,-0.3775581999,-0.0915554159,-6621259.80153576,0.1349738395,-2468441.6531980713,0.1900040435,-0.6133633685,-2355445.995313115,-582956.3863016499,-16126.659421224,0.5945100189,-1474017.1959722987,-1.3479369078,-1.1840332444,-1253550.4153047472,-0.3247210387,-0.6229054598,66984003308434640000000000000,-0.3381878192,0.711064474,-4.5466178069,-2988912.613857098,-348308.9799607531,-0.7286985952,-0.6935392051,0.3672773224,-8.8553886955,-2620808.4450800237,-0.3821407665,-1.2487007883,0.2421397256,-2.3586560128,-226469.4717759771,-105728.0064579155,-789593.694068859,-2485983.7020492945,36995393956009238000000000,-0.0249675465,1927246459122621600000000,-1.9281879977,16.4790135313,0.8263051912,0.3471970149,-4.3566341866,0.7785090305,-0.2893414603,-2.1736098364,-59932.7610598517,-2265511.2613903936,17922150777236190000000000,-1.5823484017,-0.7373603547,-980318.5999905351,-16439413627.544998,-2.319556481,-4665742.983937395,-26601109.281998392,-20452685.015480522,-0.9487570578,-22015198.904289912,-12284278.033012113,42.0078940774,-2.0075725545,69904385163041070000000000,-0.757011781,-2.0686403667,-0.8409793192,-47554506.1570171,0.32474046,-17728357.19767057,-0.0044232489,-0.9909343651,-16916952.442469683,-4186748.784583812,-115830.5945343457,-0.3654457298,-10586383.597938841,-2.3542569073,-3.5848623771,-9003040.977789452,-2.0639768584,-1.3050852593,489718513797026700000000000000,-1.3413080338,-0.8525865158,-7.9623918207,-21466607.807881694,-2501183.130730454,-1.0016663568,0.1526876036,-0.7697739189,-54.0629862936,-18822583.833744265,-1.3672630863,-1.8100212186,-0.1578178821,-4.2625852237,-1626387.294324966,-758972.1851872175,-5670552.335444965,-17854192.877746884,270472477765314700000000000,0.1296030336,14090054715545306000000000,-3.9451180186,121.9045733974,-0.5826658893,-0.9330287661,-7.0269607685,0.637331863,-0.1626184747,-2.7268823132,-430377.470899487,-16271298.250843825,131028433792776270000000000,-4.1078577564,-0.2155898001,-7040651.376724448,-120188176474.50339,1.0936043571,6074730.115745592,34634265.416538596,26629183.141944204,-0.8840473263,28663408.79761793,15993952.438789068,-58.5075735785,-0.7065551457,-9458468801575912000000000,1.5132073093,-0.4308360831,0.0293774433,61915105.09900805,-0.3095507581,23082049.10390205,0.7766256574,-0.1470236028,22025576.97049164,5451090.477376062,150805.9638294332,-1.0776778905,13783312.236313343,0.0988057814,-0.517356845,11721814.85468106,-0.8276512288,0.6535351112,-66261755904990800000000000000,0.2481243296,-0.9764117391,0.0135260449,27949143.368858144,3256582.81620407,1.0906131624,0.6567302748,-0.9342706756,-6.972621601,24506733.676884815,-0.2379973954,0.782014083,-0.3559973487,-0.3890571122,2117555.9791975976,988245.698274245,7383038.933326347,23245911.384494305,-36596495302224740000000000,0.345999411,-1906466132942709700000000,1.4346780439,-158.3563275762,-0.8688490286,-0.1116214834,1.364347048,-0.7291737021,-0.0111031357,0.5385508002,560357.6815592533,21184888.6379082,-17728907197042122000000000,0.9875234055,0.7713502316,9166823.152326416,-28166517267.340157,1.2363672326,40629898.51430799,231645932.70079643,178104164.098897,0.5885486118,191711592.3053243,106973112.13796273,-389.9041848931,-0.0007326598,-63400515445339810000000000,4.9301542436,-0.1927016126,0.3327213049,414111854.34960437,-0.3050163875,154380942.40178588,0.6221149798,-0.446673891,147315276.4135193,36458699.39803578,1008667.7289263917,-0.2796758266,92187667.10066096,0.2681224795,0.0690973847,78399760.65319477,0.9271183992,0.9499839893,-444155345523772100000000000000,0.227111692,0.2149990212,1.0825419392,186934427.36483672,21780170.200274836,0.8804633659,0.2081896049,-0.6856180429,-26.3870806957,163909536.51294068,0.8659327294,0.9987244273,0.2695576953,1.9634824126,14162650.754811816,6608731.114498825,49379517.39685244,155476513.84670377,-245307852077225200000000000,0.9810538761,-12779122926061000000000000,1.2769651908,-1072.1371677694,0.0576480663,0.8066845005,3.0708593454,-0.2805570795,0.7665804846,0.4311222824,3747706.715327013,141693159.2221944,-118837612953568070000000000,1.2634372956,0.5533622193,61310957.28984196,-188801338863.7149,-0.1744815044,30764264.120254967,175398330.53226215,134857459.5780486,-0.534211052,145160702.35907698,80998206.76884027,-296.0470223886,1.0088024533,-48000298285127750000000000,4.6454872118,1.1494402525,-0.0956726467,313558317.4001034,0.5973730334,116894595.76112773,-0.4276226274,-0.7518042937,111544580.20214923,27605906.543831725,763743.9202344376,-0.3004864336,69802919.17189558,-0.0514310278,0.7848597538,59362946.35546419,-0.8216076143,1.115852321,-336268387099400000000000000000,0.4223137469,-0.3948227151,1.2252698932,141543513.2529726,16491608.29947216,-0.4301585795,-0.3147895056,-0.3183160847,-17.9503476084,124109491.14778984,-0.3199734287,0.9133294884,0.9779181097,1.2674688372,10723726.485217962,5004056.375757601,37389355.10684495,117724159.85780817,-185721677318891450000000000,-0.3603724779,-9675027213336797000000000,0.570965613,-809.9148025188,-0.486134229,0.2086089158,0.7264108445,-0.3990952604,0.016754649,1.4040428465,2837704.979434177,107287585.5971473,-89971521985206640000000000,1.1952897912,-0.6028709029,46423603.414680235,-142940803432.26517,1.7830313772,144367540.83222535,823092211.1028346,632845625.0363629,-0.3808664034,681196272.518515,380100510.17643815,-1388.6474293041,2.7092142609,-225297145225636130000000000,19.4801000544,2.0394479268,-0.2189595739,1471436672.5502138,0.4234531286,548551649.1147401,0.1033833658,0.2596046039,523445747.98937714,129546285.5851692,3584034.91547844,-1.2400206846,327564376.5709652,1.8494654647,3.9222919356,278572728.03209937,1.2211273908,1.7270318341,-1578329934391200400000000000000,-0.2283525862,0.8253283445,7.2382381782,664221910.1493832,77389894.76864767,1.6405305595,0.0533925796,0.0743004849,-50.2352847969,582408951.5203195,2.6266107041,3.4589545916,-0.301208762,5.5960573687,50323166.71224168,23482225.324626524,175456866.16670376,552444420.643467,-871714660144669900000000000,0.3665042153,-45411301367276930000000000,3.6634305549,-3809.7567011145,-0.4573551564,0.7894741898,8.6166343144,-0.1981421029,-0.5106659247,3.9915391489,13316456.790845947,503469157.4719913,-422295856047900000000000000,3.5955404325,-0.2292427128,217852193.8451743,-670915734301.4391,-2.2988652296,-61859846231.73562,-352704002353.8839,-271417885414.29495,-0.6536490758,-291761060308.1275,-162899515699.2193,-7.7858792637,-1.5604756487,-32557921977437442000,-9122.7775539117,-0.4962898985,-0.080703312,-630124854978.9048,0.2393763373,-235047656942.15628,-1.197826493,0.6387996965,-224203152706.04825,-55538030725.601105,-1536088170.1750822,0.5961038339,-140346105594.06482,-2.5524762514,-3.8559559365,-119350505122.56047,-0.8130611019,-2.6142437826,-228086080900005430000000,-0.5284847276,0.237366187,-7.4798745268,-284475879267.283,-33351367191.70878,-1.0802087078,-1.5165217331,-0.5052220493,2.187483775,-249577152751.88785,-1.7493871461,-2.8499304714,-1.2308371463,-6.3865393174,-21628311083.126938,-10293068638.761055,-75359295427.02255,-236780086326.64322,-125972381362263740000,-0.50405866,-6562433827943849000,-4.6391760408,-9.0213233935,-0.8759528806,0.3180226281,-9.3222669254,-0.1167524306,0.3787983866,-4.1912113925,-5782737722.078555,-215501422107.78235,-61026408154395130000,-4.7369848992,-0.1036508881,-93335703426.44148,-66133806610061370000000000000,-0.1665275785,-2918293.902583603,-16638257.674264362,-12792504.592894467,-0.3701024206,-13769965.872378482,-7683480.205204502,28.2256413518,-1.5728258219,44009960521475270000000000,-1.8091370057,0.6689605491,-0.8362404529,-29744217.659060426,-0.8100753702,-11088616.245111028,-1.130617443,-0.0500494142,-10581137.535748264,-2618689.3145692917,-72450.9512664733,-0.2953464308,-6621500.375613764,-1.5011737328,-1.2346290131,-5631171.458299039,0.1062722121,0.2406597371,308313883436280350000000000000,-0.4933955121,0.028741489,-2.2051899233,-13426846.500349153,-1564338.67577302,-0.5882328671,0.3466532316,-0.8987385604,-32.3043141215,-11773010.244586064,0.4444806383,-1.1274351473,-0.6655654287,-1.4398400389,-1017235.1141244889,-474631.9105134172,-3546705.980112952,-11167289.756265081,170282351254990500000000000,-0.6541918977,8870727499144487000000000,-0.6542659734,78.2279361503,-1.0256275096,0.6552831813,-1.1204857861,0.826879713,-0.4578540366,0.054246497,-269174.6198401787,-10177356.276831204,82492052322057200000000000,-0.8155819927,-1.2534774711,-4403738.830784556,-75667311717.03354,1.5190642917,44709922.91054966,254907632.913346,195989313.9173288,0.5485060202,210963059.74247566,117715264.64860111,-428.8845220692,-0.0615028293,-69756429918413290000000000,6.3278640212,0.0045346442,-0.6753099854,455696478.77968717,-0.3192923417,169883736.41868478,0.2782071194,-0.224081721,162108516.0484967,40119857.97559342,1109956.1043582642,-0.5641380577,101445072.15457138,0.3405373534,2.3796174544,86272585.90981154,0.6441129343,0.5695587025,-488682008581286900000000000000,0.59835856,0.3856390165,2.4749066817,205706170.23774216,23967387.277201448,0.8767275336,-0.2533557716,-0.3666091793,-65.4854874921,180369199.05884698,1.6835914483,1.5168255816,0.0859047735,0.8496051246,15584873.060200768,7272445.112888266,54338224.6835588,171089351.61559832,-269900013772193900000000000,-0.7708848236,-14060232579324966000000000,2.6863499924,-1179.2912306907,0.0118383577,-0.3551580711,4.043636523,0.9959157213,-0.91358672,2.117611903,4124060.3823246234,155921780.89351565,-130751107643816510000000000,2.3605312968,-1.323131546,67467750.13999864,-207728713076.99066,-3.0393206034,-276949.4185466532,-1578989.1900998936,-1214043.486930867,-0.6771732327,-1306771.5886451858,-729171.5236734843,-1.2238892629,-2.530269874,4110716609395251500000000,-0.0761039716,-1.2078710584,-0.9377132309,-2822719.7922857455,-0.4487528157,-1052318.4164905725,-0.7989349875,0.6455689351,-1004152.3737868124,-248518.6975318083,-6875.8410157124,-0.8354661807,-628385.758812941,-3.6947554199,-5.6482500007,-534400.8842245705,-1.9731049728,-1.2651655586,28797821823317200000000000000,-0.1440712267,0.7935452049,-8.7786812535,-1274207.1984977117,-148477.3474975418,-0.7399163984,-1.2959873686,0.7471020518,-5.2527230085,-1117271.1722745027,-2.3876132997,-3.0494612655,0.3874739324,-7.0968420913,-96541.9080999174,-45064.6969537781,-336603.8501271044,-1059794.486265024,15905092422184736000000000,-0.4610649008,828563498718858900000000,-5.6449721464,6.6242479097,-0.7934044635,0.2472863054,-9.2328543222,0.4254621097,0.4124031248,-3.9463305636,-25548.6751338844,-965819.0334209108,7705106880473420000000000,-3.7504223247,-0.7446042156,-417918.7488891055,-7067647230.277671,-2.478258006,-1244344.1620265087,-7094457.4333741125,-5454673.08161241,-0.0427361147,-5871417.39481159,-3276190.407095585,9.6767076347,-0.9633404702,18692821125828085000000000,-1.1511868888,-0.1437906095,-0.3856192298,-12682716.51668326,0.1036295589,-4728117.573213893,-1.3311915954,-0.5521017741,-4511724.599807603,-1116597.3031411488,-30892.6631277251,-0.8889722236,-2823367.356047535,-1.2573041273,-3.0211479676,-2401095.111404933,-0.035025658,-0.5816531005,130953452477457680000000000000,-0.7531060109,-0.6396062588,-5.0899357731,-5725111.758315398,-667045.2253060841,0.2177361261,0.1486295891,0.3172329579,-14.2965952195,-5019942.621878218,-0.5442997818,-1.000415634,0.0223532214,-3.3344590636,-433749.6045742059,-202402.8298196054,-1512313.0423537618,-4761673.605173334,72325843858499870000000000,-1.2016244288,3767758944399835600000000,-1.7497220843,32.555584257,-0.3734982147,0.7325078387,-4.4726675042,-0.4848023862,-0.7048829929,-2.5867843739,-114778.3622755744,-4339540.070191878,35037731460954684000000000,-2.5795842835,-0.1062502876,-1877728.2462006072,-32138986410.031403,-0.5367198405,-521507.7117849715,-2973303.3388270456,-2286116.4977637003,-0.0055111253,-2460682.827447882,-1373056.920005952,4.3540517809,-0.2200689583,7660956576254942000000000,0.0566898817,0.1362599167,0.8778467608,-5315240.195623199,-0.237631954,-1981553.2347292358,-0.8740525039,-0.5385269453,-1890841.625238349,-467972.0763861281,-12944.9894446932,0.0545807867,-1183273.2451127148,-1.2093547393,-1.6894497236,-1006292.6075532811,-0.6432927576,-0.2548468283,53669197719668780000000000000,-0.550522106,0.544984554,-1.8872459838,-2399360.577849768,-279610.1823812426,-1.2586510449,0.3299255582,-0.7878657026,-6.1271573362,-2103866.784957445,-0.4567643561,-0.4130135574,0.3672227865,-1.5845797632,-181799.8481973279,-84878.1086855605,-633853.6545205086,-1995636.5793896255,29641601201403320000000000,-0.4815422345,1544156308378767000000000,-1.2917705608,12.8065710114,-0.0387108471,0.7353000232,-2.2013697373,0.4013008844,0.0268783115,-0.1895217867,-48111.7391168882,-1818644.418494624,14359659114373747000000000,-2.2338191941,0.7757937081,-786955.5068600969,-13171654376.186378,0.8910491535,44363885.66963649,252934758.97641456,194472378.16836762,0.3489294117,209330351.13921097,116804203.19692367,-425.5656129939,-0.2114454008,-69226410641272300000000000,6.1396523165,0.7662420324,0.2924333546,452169732.65559506,-0.4087146338,168568925.991557,1.0593781253,-0.9046439001,160853907.3525195,39809345.01924297,1101365.9652788006,0.5402806246,100659939.71380442,1.2977069694,1.6655733762,85604888.04206447,-0.2820652941,-0.2157943666,-484968933166691550000000000000,-0.796787512,0.8177333251,2.4294274694,204114153.9504407,23781827.499045722,0.9329955054,0.0415316565,-0.4915768413,-0.1526308831,178973222.3786576,0.8842260048,0.1747275168,-0.6843830036,1.135397757,15464234.41268915,7216098.510286389,53917621.6464512,169765188.2178392,-267849275075171050000000000,-0.625089775,-13953400932165784000000000,1.1905599346,-1170.8005965708,-0.4386384285,-0.128767869,2.5849672051,0.448274333,-0.5342648445,1.135182076,4092131.3593074614,154715101.3102407,-129757642129027260000000000,1.1083451652,0.4041996686,66945583.647521816,-206150359401.75552,1.8389073708,124575932.23595822,710253001.4817978,546087575.7633451,0.4236780556,587809907.834584,327991840.5858617,-1199.5188740379,1.0826026832,-194423345878219230000000000,16.9664130547,0.6778920315,0.5525648359,1269714942.9902976,-0.8798892461,473349726.3367606,-0.0459218466,-0.260172468,451685671.29602975,111786543.8936741,3092694.318402288,-0.4812764518,282657989.0660777,1.6948987457,2.8106989869,240382705.49862102,1.3642260587,1.7619160488,-1362042055334354000000000000000,0.2976820626,0.1408171669,5.83436684,573162600.8718562,66780283.7487397,0.8027652318,0.2422933933,0.5424063529,-32.5705668934,502565450.99056375,1.6593200203,2.00584314,1.3656592114,4.0245812653,43424244.126045674,20262915.028882306,151403093.86680257,476708794.1812947,-752258448311384300000000000,1.3310257845,-39188322353875470000000000,3.469185267,-3288.6515741767,-0.1721095587,0.1415242511,6.7851109078,0.8554320897,0.2369309501,3.5805714491,11490863.831313929,434447773.0918587,-364426159067003900000000000,3.7193913151,-1.3491038578,187986447.16219744,-578976181446.7751,-2.5027410128,-8729745401.902807,-49774067207.350204,-38302860375.984825,0.5581980735,-41173716423.84554,-22988600630.823383,-3.0196526863,-1.493232994,-4594618062801507300,-1287.1914357549,-1.4021070732,0.2463789372,-88924073803.89722,0.8721125153,-33170244145.806145,-0.0634689494,0.6879485541,-31639852910.955643,-7837602253.6900215,-216774847.65366212,0.2490173664,-19805832761.40111,-0.7858394255,-1.8711995026,-16842905144.444529,-1.3669285055,-0.6980583019,-32187816774824870000000,0.0272737926,-0.7516586355,-4.6937530406,-40145621782.46726,-4706590369.746124,0.1944423605,-0.3996689749,-0.6844882771,1.1934808291,-35220666323.20242,-1.1703384636,-1.5321346571,-0.9567378164,-2.9783044807,-3052216662.165684,-1452572045.2926362,-10634806165.593761,-33414726998.197342,-17777393140237433000,-0.0899907771,-926099553365278340,-2.5483289732,-2.9124209238,0.2877212003,-0.5912369923,-4.9926639578,-0.5227367376,-1.0604750104,-2.376878639,-816067867.7989554,-30411852741.585335,-8612129404597137400,-3.0091890655,0.6592002291,-13171661046.730087,-9332897209602768000000000000,1.3372604173,27227593.189057104,155234479.0472354,119354120.9422578,0.3638016057,128473040.42990991,71686627.86312361,-261.4690653755,1.2833633685,-42492657433556905000000000,4.5012366874,-0.4529691986,-0.7067443221,277511715.81741667,0.3739152817,103456370.31876251,0.6534020237,0.7431278726,98721424.53853545,24432315.021737173,675946.6469654362,-0.4641693918,61778359.17338249,0.4020480778,0.0694982339,52538578.77464285,0.4077288215,0.099473379,-297684345498676130000000000000,0.9246584651,-0.0877645773,1.5882381423,125271691.67067938,14595651.333501875,1.0668634004,-0.749946212,-0.9201090581,-17.9043131671,109841824.70115674,0.6709493036,0.0241155797,-0.3146266435,0.41728477,9490901.172097588,4428711.636238473,33091001.223786395,104190537.14328034,-164411636890648400000000000,-0.5595233441,-8564897130317216000000000,1.7218103371,-719.2733622067,0.9239473534,0.0040392338,1.6845494736,-0.3066325777,-0.9368921157,0.1020337198,2511468.8122611106,94953867.0038799,-79648027180648940000000000,0.6925908775,0.2109591015,41086736.10076032,-126539518981.68741,-0.6600388141,-34309.0798905108,-195605.9655826101,-150399.3807561295,-0.1352607008,-161883.1273093884,-90330.4476123956,-1.9699943783,-1.6509729508,503080850625480940000000,0.3886261655,0.1393480109,0.1136639508,-349679.1898403188,-0.7907438021,-130362.8388522369,-1.104242019,-1.0954973779,-124395.4698447576,-30787.6731720705,-851.15547292,0.6006509198,-77844.3041952442,-0.7614234602,-2.3063080399,-66201.9802746341,-1.1948141109,-1.7521611759,3524356961490183500000000000,-1.1070172092,0.6712944591,-3.9559919862,-157849.8093112263,-18394.8953938373,-0.2656185937,-1.0420632938,-0.06179232,-1.7787604664,-138409.022654305,-0.9818737645,-2.4995443886,-0.2788148055,-3.1135664477,-11960.8740272371,-5584.6366986406,-41701.1050696861,-131289.8747597239,1946509133405511600000000,-0.2263334946,101401889096419830000000,-2.7643786957,1.5488945216,-0.9557577537,0.9167271776,-6.3562306559,-1.0199749999,0.5771264463,-1.3917294069,-3165.9748086256,-119645.6869404746,942972258104427300000000,-2.2222880707,0.9072140457,-51771.4050038086,-864958189.1674669,-2.0941593563,-791858.6454129069,-4514680.243212691,-3471199.442616171,0.2981024611,-3736358.4751516925,-2084859.693877685,5.7554002668,-2.705984891,11810658733812422000000000,-0.2841467564,-0.4302905184,0.5159375694,-8070810.45585717,-0.5853579118,-3008813.572851002,-0.2456721467,0.1486399415,-2871099.575892411,-710567.4734375621,-19657.9705799115,-0.2605157225,-1796695.6083534944,-1.7798662147,-2.4024895482,-1527972.2100437395,-0.6469441176,-1.9814606945,82740134665321070000000000000,-0.102868745,-0.5758869655,-5.0396605073,-3643250.333794504,-424510.1760830024,-0.8055643015,-1.5470046039,-0.8714515541,-10.3919098282,-3194526.503319718,-0.7048301086,-2.4673981879,-1.0718265739,-4.3319101139,-276030.6266739395,-128827.6642925644,-962406.3811476548,-3030177.191890593,45697535631337340000000000,0.2933449946,2380577804924801000000000,-2.7739590688,21.0102791918,-0.0792308298,0.162957644,-7.5353318167,0.4091276792,-0.1560600367,-1.8740733577,-73044.4940541813,-2761509.442995192,22137840313494477000000000,-3.753793232,0.619478665,-1194921.4547386356
   -20306330325.616936,0.0593821311,-9463067954.488413,-53955225341.25535,-41520405333.37269,0.0192729706,-44632421775.36607,-24919706126.2057,-1.4224748146,-0.0150190394,-4980578518714622000,-1396.5589238554,0.4030827563,-0.8609448397,-96393940599.5556,-0.8636910593,-35956635683.555626,0.5359474765,0.0761697556,-34297687522.22879,-8495982312.7454,-234984535.0153118,0.1770786737,-21469577061.669903,0.2010857244,0.1062303497,-18257755430.9439,-0.0390833551,-1.0250939846,-34891681225172224000000,0.8141617887,-0.7948860169,-2.04489198,-43517964399.90733,-5101956538.609232,-1.0857150597,-0.0612966853,0.5773386927,0.4972753435,-38179298886.34162,-1.283742406,-1.3389263439,0.6846042596,-1.4063639846,-3308611128.2815285,-1574591731.7038357,-11528158776.746578,-36221655640.736755,-19270742678783713000,0.1174625602,-1003894443156102780,0.138408316,-1.5473277948,0.1336768983,0.4127110976,-1.8151183251,0.8777001563,0.0885053182,-0.2577982897,-884619730.8699262,-32966532207.856983,-9335571777179580000,0.185534326,-0.2215349979,-14278116722.167044,-10116981351258515000000000000,-2.56142294,-9193143.999618772,-52413478.87175313,-40298739.10564095,0.3734327165,-43377791.52108386,-24204327.944097687,83.8845799343,-1.9160744272,138403396690946850000000000,-2.9191250174,-1.1024112393,-1.0088419566,-93699432.38039333,-0.1831264687,-34931103.12254985,-1.634687133,-0.1233370657,-33332425.811064925,-8249344.452073419,-228229.5220177475,-0.5536583853,-20858896.521382455,-2.2886065259,-4.3180267691,-17739181.7617509,-2.480918555,-2.1302861838,969591615373879000000000000000,-0.7913754887,0.4384100918,-7.7700330801,-42296897.38450684,-4928013.372346882,-0.3861076699,0.0237784785,0.7865743139,-104.1531306374,-37087076.99334832,-2.0138143465,-2.581998554,-0.2397676495,-6.1940386304,-3204493.4275564454,-1495245.6602971768,-11172813.701844145,-35178963.76153476,535507315411279200000000000,-0.4658857446,27896839771130743000000000,-5.142410646,241.9929084451,0.0780691648,-0.4528893275,-8.5720939659,0.3704816618,-0.3557532692,-3.0931202876,-847961.142078212,-32060398.97828924,259422642195028900000000000,-3.4021423579,-0.7711717333,-13872559.215151723,-237960062568.8897,-2.2033430629,-1.2993036186,-1.17292716,-1.6545939051,0.1670480442,0.5496085859,-1.0442591168,-0.4919866871,-0.2586635954,0.1898355404,0.2654751708,-1.2871372695,-1.8257298948,-0.1194959491,-1.800765461,-1.0167607834,-1.4336651448,-0.91783798,-2.0283692891,-0.8887094979,-1.855543111,-1.9013026634,-1.1170362692,-0.8170794904,-0.2481330165,-0.0589942964,-1.2059972256,-0.486091837,-0.1550678235,-0.3195119651,-1.4803480074,-1.253689521,-1.5709059771,0.0944158424,-0.7988034834,-0.4752277807,-1.1857734231,-0.5813552783,-1.1351469503,-1.5387442527,-2.4574101777,-2.2983813946,-0.2241448474,-0.3750664284,-0.9949068806,-0.4215597194,0.5177394296,0.087035683,-0.3192060733,0.0707603055,-1.3423898051,0.009680422,-0.4311593605,-1.1046286111,-1.0891865903,-0.5364026458,-1.0422896024,-1.7211549386,-2.2816608834,-2.3387427886,-1.8523388293,-1.5504339518,-0.8777307775,-0.9778220078,-0.7575702148,-1.269019205,-0.5808565958,-1.1845000111,-1.1539890552,-1.2301763462,-0.6172995787,-0.1152213628,-1.1463077757,-1.7396343254,-1.4658222342,-0.5306127651,-1.8726512052,-2.0672370206,-1.2688228419,-2.036562686,-0.7393854226,-0.7463200875,-0.6702544962,-0.3355392237,-0.1269515345,-0.8899806967,-0.5160677821,-0.2858063076,-0.0046809025,-1.1793466921,0.0933408479,-1.0835717281,-0.5545818869,-1.1322796003,-0.2902792258,-1.0650769437,-2.3067050813,-0.5968581151,-0.7616282571,-2.4928433188,-1.1373901511,-1.940230776,-26454540.23619718,-26454539.30347213,-22655842.94651452,-22923611.50077557,-22926715.571403496,-23017524.27314357,-10265511.26900316,-10440922.496460374,-10263960.048865886,-10174704.301913973,-1850841.7032930932,-1761584.8997106168,12415.8437438843,192480.0762878151,106326.0651412071,198687.132698675,-10074583.850776818,-10071480.005131293,-26454539.69857859,-26454540.102946375,-26454539.876467403,-26454539.402588226,-26462299.316540077,-22835907.86065995,-23103677.073915668,-14781366.837316327,-14956776.014121512,-10265512.667962145,-10176256.579723058,-3975659.2051657396,-3886401.453300568,-1761584.8851940164,-1761584.773883223,-162995.5677365375,107879.2990781319,-3877090.2597488146,-3873987.583998345,-24243568.151953988,-26454540.68467938,-26454540.566367622,-26454539.849033646,-26454539.72019224,-26816221.891027883,-26908582.177174874,-18587823.560245566,-18766336.597192917,-10442474.188190611,-10439369.548194516,-7960628.107996474,-8049885.387698538,-1850840.6279562486,-1761584.9125067575,-164545.5774084845,103223.3422498234,-3969452.309426272,-3877090.2251961664,-11934736.122144433,-14233412.097974306,-26454540.27542077,-26454540.61323436,-28491653.046193995,-28491653.687022272,-24511339.72313946,-24696059.750656996,-24699163.40184767,-12567292.021436175,-12656549.222995827,-8316103.12432085,-8402257.094175102,-8049884.893338969,-8049886.295963837,-166097.3743753103,12414.8296216273,13967.6691175597,283288.8065202299,-12025544.280669319,-12022441.766279459,-24154312.78990742,-28491653.175454855,-28491653.05360301,-28491654.341572255,-28491653.62524035,-28587118.45652281,-24429841.14940954,-16552262.693401434,-16464556.280312551,-12301073.932800343,-12301074.364950009,-7874475.550030762,-8049886.4191851765,-4240324.800502277,-4240325.145086087,-166097.8447816693,12414.7530122827,-2198556.104427341,-1838426.5154235703,-16007410.363647338,-16182820.356919631,-28491652.451946244,-28491653.558673307,-22322383.635203905,-36640106.2357989,-157156408.58525562,-157156409.9437672,-134593363.4364951,-136188487.67595416,-136206182.7644945,-136746738.6862878,-60984648.43449383,-62030369.06869864,-60975799.977746174,-60444092.52779723,-10993549.500540072,-10461841.768236019,70784.3500328488,1143047.2345660701,629035.8155751537,1178439.5206127258,-59850448.02558651,-59832753.09420592,-157156409.40523082,-157156408.86493334,-157156409.3251486,-157156409.65623268,-157200648.69985053,-135665628.08564377,-137260752.60205102,-87819055.9274462,-88864776.5333378,-60984647.84024844,-60452941.09946373,-23617614.751696344,-23085907.55376017,-10461841.952474657,-10461841.757521221,-974936.3878276701,637882.8549556014,-23032818.72101229,-23015122.80137875,-144018330.68441775,-157156408.5769486,-157156408.62049097,-157156409.08503744,-157156409.8343358,-159309785.86722413,-159859190.40602744,-110426343.25399643,-111489760.00455266,-62039217.03884337,-62021521.13470644,-47288318.12700761,-47820026.76500717,-10993549.700534252,-10461841.773969969,-983785.2499712119,611338.831577258,-23582223.88951769,-23032819.547755223,-70897085.39576569,-84558023.09080487,-157156409.9387805,-157156410.20990896,-169257615.09989083,-169257614.9252849,-145613456.47751307,-146712263.9743753,-146729960.26430172,-74663281.98174404,-75194990.89149454,-49406304.1191329,-49920316.45506129,-47820025.581501745,-47820026.70150181,-992633.1115616543,70782.9409857318,79631.3678680274,1683604.3515536743,-71437642.5434501,-71419945.54803596,-143486623.27397466,-169257615.42792207,-169257614.16117942,-169257615.22105065,-169257614.99452636,-169824714.09385163,-145125987.22751233,-98333984.99795651,-97811126.4559306,-73077006.88891809,-73077006.99806847,-46774306.74179007,-47820026.6885829,-25195043.44564997,-25195043.74963907,-992633.8628747951,70783.5633027712,-13067294.093082251,-10922764.769421069,-95090648.11308587,-96136370.10834068,-169257614.5705724,-169257614.19389018,-132604502.21828142,-217662437.52125436,-205949047.92449337,-205949046.76662225,-176378333.2995391,-178476906.38307923,-178490518.87129334,-179196849.8238027,-79916979.08799054,-81302413.80691382,-79910173.02044824,-79210647.63726225,-14418577.659982733,-13719054.275157057,54452.6330585289,1460306.836262239,774395.904360095,1487531.9363192245,-78463479.70853463,-78449865.4023124,-205949046.85647938,-205949047.35035,-205949046.5753573,-205949046.65213713,-205983078.95648542,-177784189.0386421,-179882760.49998227,-115097497.36892256,-116482931.60896301,-79916978.78687249,-79217454.61115538,-30962954.77774362,-30263430.703083858,-13719054.226656737,-13719053.610895634,-1330982.9666332349,781203.0929997381,-30222591.81187644,-30208978.77920918,-188718759.11685893,-205949046.8555135,-205949046.34923887,-205949046.58239892,-205949048.02831146,-208767562.5800757,-209480699.61905628,-144702243.0942964,-146101290.24361527,-81309219.49728568,-81295607.29276839,-61966747.77964287,-62666271.34969595,-14418577.742635736,-13719054.232020823,-1337789.2457702626,760783.1101523656,-30935728.422766544,-30222590.599952754,-92922896.76040064,-110845900.68380971,-205949047.4298559,-205949047.362615,-221800706.62336776,-221800706.2917349,-190817332.22533157,-192243605.78117675,-192257218.27361357,-97853596.07310128,-98553120.53485006,-64758038.25298756,-65443947.59998655,-62666271.8001003,-62666272.681311645,-1344595.0158395527,54452.3049468729,61258.17875763,2166637.423469518,-93629226.4426413,-93615612.99641852,-188019235.18695003,-221800705.9933455,-221800706.15295106,-221800706.58372825,-221800705.19467622,-222527455.46488187,-190151840.0633286,-128857389.97864841,-128164672.78081465,-95761831.58289826,-95761831.84271443,-61280836.62537806,-62666272.61890273,-33047912.602696545,-33047912.519600105,-1344595.51627231,54452.1442632377,-17175834.69197712,-14364125.574761141,-124619407.65013337,-126004842.38123262,-221800705.09660184,-221800705.25316322,-173732245.90274537,-285207341.16226065,-1.6720964339,-0.8214622339,-1.0165116942,-0.25012972,-0.164547903,0.5751729172,0.453638022,-0.4184167474,-1.2195369812,0.0224167726,-1.1206833156,0.2837598726,-0.5472744935,-0.6890758008,-0.2693842028,-0.6678570006,-0.782108032,-1.1476381534,-0.9659469361,-0.5124743589,-0.9132875552,-1.3212308327,-1.2202567664,0.1822035294,-0.0894984758,-0.4583121,0.4688873616,-1.3957576093,-0.6423404016,-0.9894213815,-1.5831254718,-1.3396002421,-0.3211031155,-1.629135655,-0.0878884827,-0.393326976,-0.5736828268,-1.1399247828,-1.7629234188,-1.7445669486,-1.7798615795,-1.5019991088,-1.4635047392,-1.0633534263,0.6033873899,0.6720994556,-0.8490289465,-1.1638272192,0.2700460274,-0.3559854996,-0.1764422781,-1.2803080077,-0.4677809958,-1.437819723,-1.2839869261,-1.701202719,-0.9788771806,-0.1861389587,-0.2457705622,-0.7603826206,-0.3657950346,-1.9767620112,-0.4343000136,0.1353444846,-0.6546115115,-0.9582129564,-1.0231263966,-0.9117694665,0.3252074489,0.1177314032,0.0485374283,-0.0099318976,-1.7001525279,0.1594943136,-1.0907457153,-1.1934941366,-1.0649422826,-0.1857022853,-1.8869806093,-1.7367545954,-0.7485690389,-0.7769606139,-1.5306198483,0.6940660127,-0.7405564711,-0.8826094749,-0.2133099,-1.1215420876,-0.0183097831,-0.203993433,-0.6753760398,-1.354105874,-1.4657309223,-0.1280095609,-0.6999709874,-0.983577233,-1.0653512694,-0.970641607,-1.838575704,-0.3115098648,-0.7562680728,-0.779445196,-79800327.2904145,-79800328.19711378,-68348107.33151971,-69156529.5060476,-69171170.93293877,-69447965.61547063,-30968664.306892097,-31492972.440191638,-30961345.17902017,-30691871.204854812,-5573071.990860363,-5303596.922407241,58565.3732495027,604833.0314720463,350001.1034960942,634116.6913314771,-30371152.07888327,-30356510.325174548,-79800326.51099664,-79800327.66638727,-79800326.7001309,-79800326.60061814,-79836929.979846,-68894374.71758732,-69702797.2552956,-44591319.24669937,-45115625.743899,-30968665.017055504,-30699190.217283133,-11983848.676967392,-11714374.212514525,-5303598.252308563,-5303598.19171895,-465741.4645410292,357321.141397885,-11670450.758335378,-11655809.531718753,-73134718.39395311,-79800326.79641989,-79800327.44405407,-79800327.9305103,-79800327.49804547,-80900184.98284605,-81184301.63297871,-56080143.23229169,-56619090.307952255,-31500292.56186618,-31485651.982796233,-24011619.083796512,-24281093.569370564,-5573072.631139803,-5303597.708078193,-473063.5867659636,335359.8798463856,-11954565.751944963,-11670450.593565527,-35988146.821509466,-42915909.60417019,-79800327.58155452,-79800327.99853832,-85948951.38160916,-85948950.31476802,-73943140.33297765,-74511370.01929969,-74526011.69501564,-37911069.856277145,-38180542.873083495,-25082195.18026172,-25337027.980918765,-24281093.78485993,-24281094.146131292,-480384.1031825868,58565.7514334289,65886.3943978063,881627.2394486159,-36264942.355108105,-36250300.0581331,-72865243.53071553,-85948949.9959676,-85948951.20059964,-85948951.0891893,-85948949.61116706,-86247707.33506013,-73710270.06116149,-49938840.08681082,-49676687.36585063,-37109968.06736531,-37109967.26128921,-23756786.872846913,-24281093.572794452,-12777628.217054356,-12777629.035892416,-480384.0631196621,58564.998227498,-6607044.362036729,-5514506.305514204,-48278073.33801711,-48802380.41437298,-85948950.02490215,-85948950.17781354,-67357458.7416144,-110543450.90310593,-80461164.98355809,-80461166.51964365,-68910693.19912064,-69729747.4333615,-69737919.9846278,-70015023.33431241,-31223391.293366257,-31761255.261989485,-31219305.13054608,-30946288.277255587,-5628511.341915255,-5355493.339169962,32691.4277707881,582812.6616310688,317968.240813708,599157.5152720727,-30644666.080558542,-30636493.65398539,-80461164.99058092,-80461166.60327354,-80461165.98240562,-80461165.81033555,-80481597.68509288,-69460815.19680105,-70279867.4544922,-44966177.99068032,-45504040.8826188,-31223391.085122272,-30950374.243611023,-12092421.472125184,-11819402.918540644,-5355494.519649035,-5355493.824614231,-505172.4913730009,322053.5344482176,-11794886.125193851,-11786711.74638502,-73732411.90567276,-80461165.95377202,-80461166.33542265,-80461166.53265364,-80461165.19295175,-81565496.18628263,-81846686.16537803,-56537083.017851606,-57083116.734204,-31765341.08233222,-31757168.148442905,-24209360.957032237,-24482378.296164636,-5628511.697474682,-5355492.984282668,-509257.8546586024,309795.3688116611,-12076075.627603935,-11794884.421228502,-36297695.02235126,-43295380.89497782,-80461165.52666351,-80461165.54399213,-86656144.92454943,-86656143.89858824,-74551463.51628157,-75113844.98608461,-75122017.78939033,-38229251.46983755,-38502268.581427455,-25297343.875920337,-25562189.16363416,-24482377.60111708,-24482377.24499241,-513344.549121106,32691.6487162742,36776.5446131543,859916.6535019452,-36574798.457330905,-36566625.78404295,-73459393.75750919,-86656145.30699828,-86656144.30900742,-86656143.68780705,-86656143.35520534,-86945508.03778368,-74298879.24171609,-50346189.298422806,-50077259.05491517,-37414284.432140924,-37414283.339129455,-23944514.992528882,-24482377.76582637,-12903302.344428025,-12903300.552768987,-513343.6522396372,32690.1206341239,-6696062.927092176,-5595819.592546842,-48683565.48977877,-49221429.030241765,-86656144.91950957,-86656144.1983097,-67886679.33560134,-111436058.37094569,-2413.0054673652,-2413.1978344885,-1735.283486052,-1540.8819942942,-1347.4806100297,-1154.2172235614,-771.2556010822,-576.7729106673,-384.175476452,-384.9399736018,-97.2826906178,-195.7710071459,-483.0347745653,-869.8289640298,-1159.1544592511,-1643.4786865149,-1738.9874172618,-2125.4454348057,-2413.6237234305,-2413.2227745471,-2413.0617327627,-2413.1720759823,-1735.0455865463,-1539.3302631903,-1443.0402380402,-1153.6111596281,-1059.0930286802,-578.6037030803,-384.1490961298,-192.3119711028,-291.2883841138,-194.6746030495,-195.460543508,-674.4778569555,-1352.3788082966,-1449.3216763789,-1835.9311810685,-2029.0675083465,-2414.7345428774,-2413.4594065357,-2414.1079660512,-2413.965269514,-1831.8304802403,-1637.31065628,-1349.6237083218,-1251.1885714109,-962.2021425587,-866.5547761314,-388.1700360741,-193.251359565,-97.793736172,-195.3385294666,-479.5607713258,-772.6701262336,-966.9622757499,-1450.1931410607,-1739.61534684,-2219.9417547755,-2413.6414795661,-2414.7017314806,-2413.1412192223,-2414.8269598286,-2026.9085847125,-1544.5988171347,-1446.2460626571,-1154.8174387339,-961.6725241881,-675.7409009566,-479.9698083782,-194.2729850612,-193.3841620784,-288.0312266334,-482.8717585308,-675.5460517598,-1161.7543791425,-1449.9856755132,-1836.8946764943,-2127.708347549,-2414.069127035,-2413.6687904631,-2413.8462766343,-2413.3920272499,-2220.2553234179,-1834.4746491891,-1252.64769018,-1156.9183393034,-773.4875421532,-676.0500691305,-387.2908351092,-194.0623068378,-286.9510125986,-286.955096676,-286.4726175204,-481.4067194492,-866.8681478333,-1642.676191779,-1933.6173796602,-2125.5118859334,-2413.2866677407,-2414.946866034,-1117.1933153655,-2402.5258134418,-1.5832096297,-2.086141016,-0.3639136525,-0.708123372,-0.9365050503,-0.0342706933,-0.0669668483,-0.8656201268,-0.9184156572,0.1481958962,0.1804782493,-1.5750174893,-1.2537424277,-0.6145539414,-0.668978787,-2.2659891577,-2.6240115972,-2.5569317984,-1.9054488542,-2.1700940034,-1.337230078,-2.2814564854,-0.6940644736,-0.7526880864,-0.0653086719,-0.316561323,-1.9227383843,-1.0024068972,0.2697493109,-1.1540058497,-1.0021986108,-0.065615755,-0.3532774672,-1.5492733543,-1.2950031226,-0.7144652912,-1.2443403527,-1.5218630059,-2.8261508256,-1.8684908929,-1.2437217485,-2.5711946491,-2.5386658561,-1.6510161801,-1.6428506193,-0.7928254897,-1.2010172404,-1.5788629435,-0.1384912232,-1.3823953901,-1.6580559497,-0.1233330749,-0.3376865244,-1.2581572946,-1.9679127462,-1.7043875447,-0.7596493169,-1.0364709696,-2.2130832463,-1.2364584685,-1.7016755152,-2.4395523853,-2.0588756174,-0.7423332913,-0.265259458,-1.3235161119,-0.9778649936,-0.8726093161,-1.1559382966,0.2863152202,-0.9561282957,-1.6856778084,-1.1829839113,-1.4689078339,-2.0060793207,-1.942329124,-1.4474670749,-1.6249887102,-1.3439505315,-1.2791710381,-2.4350114673,-1.4220241109,-2.3100623983,-1.8988227462,-0.990222817,-1.1194793021,-0.5989438203,-1.4867472437,-1.0599973955,-0.1772327555,-0.4505459061,-0.326659539,-0.7086082261,-1.4131255378,-1.8168136408,-1.3768466431,-0.7378623122,-2.1266104628,-2.3764204701,-2.4181076059,-1.2830655874,-2.2916928099,-61846492779624110000000000000,-61846492779624110000000000000,-52457291818294240000000000000,-52582935899983460000000000000,-52582935899983460000000000000,-52624817260546530000000000000,-23828993968110816000000000000,-23912756689236960000000000000,-23828993968110816000000000000,-23787112607547743000000000000,-4673659800383395400000000000,-4631778439820320000000000000,6631818726443.649,83762721126157420000000000,41881360563084090000000000,83762721126160720000000000,-23745231246984660000000000000,-23745231246984660000000000000,-61846492779624110000000000000,-61846492779624110000000000000,-61846492779624110000000000000,-61846492779624110000000000000,-61846492779624120000000000000,-52541054539420390000000000000,-52666698621109600000000000000,-33553245813945268000000000000,-33637008535071410000000000000,-23828993968110816000000000000,-23787112607547743000000000000,-9472963682456019000000000000,-9431082321892944000000000000,-4631778439820320000000000000,-4631778439820320000000000000,-83762721126141670000000000,41881360563084910000000000,-9431082321892939000000000000,-9431082321892938000000000000,-57005307536988420000000000000,-61846492779624110000000000000,-61846492779624110000000000000,-61846492779624110000000000000,-61846492779624110000000000000,-62014018221876410000000000000,-62055899582439480000000000000,-42942446775275145000000000000,-43026209496401280000000000000,-23912756689236960000000000000,-23912756689236960000000000000,-18945927364912042000000000000,-18987808725475120000000000000,-4673659800383395400000000000,-4631778439820320000000000000,-83762721126142500000000000,41881360563082440000000000,-9472963682456016000000000000,-9431082321892939000000000000,-28418891047368062000000000000,-33301957650566825000000000000,-61846492779624110000000000000,-61846492779624110000000000000,-66603915301133660000000000000,-66603915301133660000000000000,-57130951618677644000000000000,-57214714339803790000000000000,-57214714339803790000000000000,-28712060571309573000000000000,-28753941931872646000000000000,-19113452807164343000000000000,-19155334167727415000000000000,-18987808725475120000000000000,-18987808725475120000000000000,-83762721126143350000000000,6611862590398.154,7457054291740.179,125644081689233230000000000,-28460772407931140000000000000,-28460772407931135000000000000,-56963426176425350000000000000,-66603915301133660000000000000,-66603915301133660000000000000,-66603915301133660000000000000,-66603915301133660000000000000,-66645796661696740000000000000,-57089070258114580000000000000,-38185024253765596000000000000,-38143142893202528000000000000,-28586416489620360000000000000,-28586416489620360000000000000,-18904046004348970000000000000,-18987808725475120000000000000,-9598607764145243000000000000,-9598607764145243000000000000,-83762721126143350000000000,6611862590398.746,-4841185242635690400000000000,-4673659800383389000000000000,-37933736090387157000000000000,-38017498811513300000000000000,-66603915301133660000000000000,-66603915301133660000000000000,-52296379222446645000000000000,-85633605387171850000000000000,-0.8660908229,-0.8860637735,-0.8560830999,-0.3343136845,-0.3784098291,0.2746623969,-0.2482816832,0.3412762339,0.6395566453,0.0026219099,0.2433988094,-0.1217875719,0.9632111991,0.8879373958,0.3583059125,-0.7914784012,0.7859699934,-0.050704633,-0.9927443705,-0.6063830871,0.5338665842,-0.5605497,0.5599271925,0.9738011714,-0.0867172203,-0.5457646948,-0.735101345,0.8506425898,0.9447807492,-0.9142910193,0.3613511883,0.7702473033,-0.5322500933,-0.4419152706,0.5724084898,0.1084712707,0.8948222897,-0.374537749,-0.597879575,0.6684116949,-0.7029460091,-0.0414069478,-0.8005290901,-0.9432546225,0.9644659197,-0.3769366333,-0.7425018882,0.2441858104,0.6139997046,-0.9922460966,0.42806647,0.3177274814,-0.9863049873,0.3427081622,0.1590935587,0.7544253895,0.2472778229,0.6817028266,-0.8126934501,-0.0761920096,-0.7237224833,-0.9768091642,-0.7026774003,0.2985763249,-0.647124854,0.5863658715,0.7764173343,0.274545086,0.0176585236,-0.8490983565,-0.8414840543,-0.1404448631,-0.370132971,0.0907043945,-0.7944497755,0.7220498877,-0.5418306331,-0.7083616764,0.4519712268,-0.4215350731,-0.6847948931,0.2586058772,-0.0859752734,0.3065260179,0.1028470197,-0.2038743386,0.7045634253,-0.8792901155,-0.8878192736,-0.9359300211,-0.1711121796,-0.4626680392,0.5464079503,-0.0846815153,-0.4106030459,-0.778227692,0.6858307868,-0.5113036645,0.1126764232,0.7206159865,-413.7268414093,-715.5840237758,0.7486753389,-0.9211930106,-0.6641108893,-0.6999183835,-0.5660841952,0.5702794912,-0.979501991,0.8716739702,-0.9007437179,-0.635918772,0.6854736333,0.3980245455,-0.2517690706,0.6521301948,0.3920079016,0.7998073893,0.491226321,-0.2541863674,0.388249283,0.778329624,0.5766850365,-0.165590309,0.8205061083,-0.8542167158,-0.4979720277,-0.4889428784,0.8256146236,-0.2003312532,-0.642496843,0.2146793951,-0.5488162721,-0.9095800337,-0.2306609778,0.9175953798,-0.7815760176,-0.4227573617,-0.5327219658,-0.6492157605,-0.1389433459,-0.0347712503,-0.0970101923,-0.9002083411,0.2566986377,0.7173183807,0.0018174474,-0.7592915945,0.3694541466,0.7289456238,-0.770970423,-0.1560967828,-0.0927890676,-0.4362544092,-0.1870623145,-0.9963856918,-0.9436970294,0.5377510854,-1.0221782181,0.3246447487,-0.5068137467,0.7435600036,0.5039817698,-0.1689011903,0.0205327967,-0.7991317595,0.3037700504,0.5437781786,0.6123712833,-0.6832977381,-0.7400406996,-0.8543081611,0.8066184712,-0.3895610909,0.0368102194,0.2990122339,-0.8395332583,-0.4688009758,0.1510821056,-0.6672330049,-0.7244883342,0.539986976,0.0183705954,-0.5657348146,0.0122401699,0.6063639494,0.2448856994,-1.0316337127,0.5575996496,-0.6827004216,0.0880077401,-0.4070374369,-0.1409617197,-0.9905556143,-0.6512817775,0.8271308966,0.0834736611,-0.965035162,-0.4208554764,-0.2443089405,-0.9493904514,-0.4019347016,0.6265068648,-0.9309040428,-0.3765494864,-0.4524253301,-0.8076379635,-0.0871526421,-0.7211587106,-0.1106012881,0.2874824803,-0.0550372732,-0.0107963007,-0.6409687832,-0.78551772,-0.2502832948,-0.8745478734,-0.8052617555,-0.2952384894,0.6722683939,-0.1143593395,-0.1796520106,-0.9970595906,-0.1435233094,-0.556139711,-0.5292118271,-0.7925451648,0.0919619913,-0.9950311458,-0.8830031844,-0.7580412956,-0.4537102653,-0.0583610858,-0.3641871716,-0.6306343599,-0.2898745942,-0.2168088553,-0.79588647,-0.5878067814,-0.2387497993,0.2157636205,-0.0276700881,0.3309329581,0.4415804409,-0.4190952112,-0.360188485,0.4082274296,0.9928877503,0.806316161,-0.4828456885,0.6112909094,-0.8034948992,-0.3955812431,-0.7264266687,-0.7206328128,-0.6605345596,0.6645919847,0.4136304841,-0.9621208656,0.3129221876,0.2078769343,-0.0865797495,0.6705787411,-0.9278485201,-0.935278545,-0.6940004141,-0.6863742428,0.3499905428,-0.8760980436,-0.3866987125,0.4498866294,-0.4568687949,0.1149322969,-0.4972215244,-0.6544796915,-0.5008195069,-0.9055938193,-0.5475771579,-0.6659663252,-0.4734997376,-0.6824512464,0.0914033217,0.8540701455,0.3778712319,-0.8837330378,-0.2403925886,0.8733573403,0.5430327185,0.5454169051,-0.3055441281,0.1702715879,-0.1957977075,0.2499075113,0.8221149001,0.0263100474,-0.411365114,0.0757451535,0.3892753833,0.3739727123,0.0099052628,0.4726628901,0.3429163988,-0.6917697183,0.2548072554,-0.2617793175,-1.5487512162,-135749627.73536965,-135749626.42684382,-116272170.81604856,-117644001.94437791,-117675624.8421773,-118148713.53234658,-52683267.573363885,-53566198.60914108,-52667455.14005733,-52210179.23240255,-9470561.45216883,-9013283.719598038,126492.2418629146,1056857.8599795755,631202.7229061,1120101.9746870443,-51642222.44145591,-51610597.660822496,-135749626.6243615,-135749627.10743678,-135749627.03371438,-135749625.95295393,-135828684.3118082,-117202537.2882299,-118574366.94739114,-75850560.82661006,-76733491.35029946,-52683266.82278883,-52225989.482296914,-20376197.12714523,-19918921.178163655,-9013284.879749583,-9013283.182673676,-756438.3570748646,647013.8902468663,-19824051.38324817,-19792429.791256983,-124418336.78265318,-135749626.6139539,-135749626.27012974,-135749626.96945298,-135749625.9364503,-137626167.76645002,-138115068.14885572,-95407073.35278827,-96321626.37740757,-53582009.53512802,-53550385.551777184,-40847264.387531884,-41304541.994692326,-9470560.058524476,-9013283.75311251,-772250.7728458022,599579.9308796831,-20312952.529714134,-19824052.51590763,-61207651.818267256,-72980408.32815106,-135749625.96125484,-135749627.75436065,-146213797.7211788,-146213798.30419174,-125790165.62033238,-126767965.12092687,-126799589.45922747,-64487646.39772224,-64944923.469229944,-42660560.1298994,-43086214.37391051,-41304541.420303605,-41304541.636933155,-788062.405830725,126492.4124129025,142303.6330921677,1529946.2557144396,-61680739.9401098,-61649116.66930959,-123961059.62742114,-146213798.60484037,-146213798.18696547,-146213797.92585084,-146213798.05214784,-146734320.93876967,-125411946.06212015,-84958713.54205202,-84517248.13060665,-63131627.58364833,-63131627.02116815,-40421611.449077494,-41304541.41067552,-21716405.845290527,-21716405.66079046,-788062.8430486363,126491.0463269207,-11204799.261579296,-9344069.035472754,-82120182.37913887,-83003114.53163311,-146213798.10658428,-146213798.57176447,-114611799.1679528,-188070485.8598223,0.5062116316,-0.455018563,-0.3004474654,-0.5225526007,-0.042006483,-0.9422349265,-0.2609456224,0.8936878759,-0.1438058986,-0.3694090172,-0.9880042752,-0.545485663,0.3588412425,0.2086104536,-0.5888909525,0.6589662449,-0.2244951001,-0.9218501347,0.4820804182,-0.0350800522,0.1741288021,-0.892227798,0.5376828164,-0.4780202097,-0.12614113,0.6593706402,0.0078498321,0.6259004108,-0.4329501924,-0.1961333582,-0.9594849771,-0.7267366009,-0.1121042815,-0.4958711334,-0.0944583392,-0.7666864001,-0.5487436063,0.6725279208,0.7851860329,0.0921769338,-1.0586072278,0.1758794994,-0.6820688505,0.726835708,0.5867535217,0.4349904317,0.7162427485,-0.5162555294,-0.8610406314,0.7791335216,-0.1459185269,0.3219848583,-0.8887376224,0.7400761493,-0.6649320574,-0.9739827273,0.6435905623,-0.935351646,-0.9429257923,-0.9351934057,-0.5807727858,-0.6444206871,-0.5611693281,0.490210722,-0.8578079808,0.2215808002,-0.8429891334,-0.8980721318,0.191082641,-0.9305673119,0.3478266443,0.9442458137,-0.7643701602,-0.5230988664,0.4466633013,0.112360973,0.7276852226,0.5011252454,0.7967487259,0.6939612966,0.037306095,0.8730681861,-0.6710861203,0.2515271349,0.8844785841,-0.2146036383,-0.8078573893,0.5605134385,0.4528909316,0.1925813274,0.3385817618,0.739152823,-0.3772636303,-0.327840435,0.7872495519,0.1266092132,-0.9064668875,0.149829673,0.7925906753,-0.8046778257,-0.988727544,-0.8961081418,-99928217.36763135,-99928218.37750436,-85584502.32537629,-86601205.94533597,-86613000.3887626,-86957796.50972904,-38778274.138278976,-39444282.530566916,-38772376.790254876,-38433477.43499911,-6987664.629731516,-6648763.876296128,47173.6033718087,730871.8963048861,403764.2233667604,754458.6697493044,-38053299.20738731,-38041505.865729906,-99928217.61680499,-99928218.86785372,-99928219.16471852,-99928218.98560181,-99957700.38128608,-86268202.27139382,-87284905.60797836,-55844990.80224746,-56511000.37258995,-38778274.990383595,-38439373.908507526,-15015620.332168506,-14676718.437747974,-6648764.305526323,-6648763.896259484,-618835.7344366688,409661.4329973829,-14641338.625642953,-14629547.162605207,-91573155.39627141,-99928218.86016916,-99928217.97095193,-99928217.88947241,-99928217.60334833,-101301511.26386243,-101652206.36565574,-70218189.43325916,-70895991.11632994,-39450179.32445813,-39438387.08243167,-30066619.825022835,-30405520.54571393,-6987664.421973005,-6648763.715863295,-624732.0005624271,391971.5582057394,-14992033.636040412,-14641338.771812467,-45076343.212025315,-53764412.239435226,-99928218.04554449,-99928218.65264052,-107623167.92680672,-107623169.18975933,-92589857.70017596,-93291246.56235817,-93303040.01406528,-47478134.280480035,-47817036.3490703,-31416328.614452697,-31743435.392799545,-30405521.31109774,-30405520.897293568,-630630.0660498865,47173.5804950193,53068.7293362443,1075668.8298597706,-45421142.41433056,-45409348.86837695,-91234255.0220743,-107623167.90407087,-107623168.08869883,-107623168.38370806,-107623169.44684875,-107985657.24387644,-92280440.09004046,-62529134.60040511,-62196130.48201468,-46467328.171463475,-46467328.13824427,-29739511.989065077,-30405520.63404636,-16020531.074512929,-16020530.48682622,-630628.5597183695,47172.2714559911,-8307890.835441295,-6940492.723449841,-60460348.37062339,-61126358.26196043,-107623168.86561772,-107623168.77602011,-84318410.1174836,-138402970.46797952,-1.7703284702,-0.7096759482,-0.3911047262,-1.1451239561,-0.5060015666,-0.9500631332,-0.3285822829,-1.5045220187,0.2726931489,0.1677856714,-0.9759364562,-0.649874625,-0.8552237248,-0.1335311786,-1.2485217935,-1.7666223019,-1.2897110581,-1.673048765,-1.8149578847,-0.5166946737,-1.2440290323,-0.2923358517,-0.4680049255,-0.0925677251,0.1891842503,-0.7510660614,0.0382370867,-0.0654547844,-1.3497346163,-0.2847303344,-0.2069154503,-0.9724172438,-0.4441643516,-0.2267381082,-0.2302427278,-1.7274342987,-0.367199384,-0.4922563983,-1.2441580194,-1.5465797667,-0.4946994874,-0.1359939504,0.2345400005,0.5790970495,-0.6473211915,0.4256980776,-0.2724306525,-0.6318594809,-0.8620751098,-0.8484629232,-0.5812158978,-0.1157838264,-1.1971780501,-0.1442942753,-1.5676069727,-1.3999636482,-1.0463852631,-0.2218002391,-0.5040664613,-0.9975707064,-1.6440693021,-0.4913005829,-1.2787892949,0.1721142669,-0.8721596862,-0.9217800974,-0.6392944652,0.2766817567,0.100383902,0.1496873193,-0.4340045144,-0.7229380335,-0.5480625781,0.0182815531,-0.6687374606,-1.5491239598,-1.287022931,-0.3978021174,-1.1537006967,-1.1831345952,-1.2287336709,-1.8500912875,-0.8413377196,0.6458102061,0.0003983346,0.4780391765,-0.1440869661,-1.397092324,-0.219927874,-1.1520975887,-1.1342597631,-1.121806943,-0.3163185048,-0.4262217467,-0.6302764264,-0.9119483932,-1.8954861733,-0.0726028257,-0.7872404774,-0.9731957762,0.5109927939,-0.8920560005,-0.46185384,-0.8299360791,-0.6928862494,0.1308752935,0.4520268575,0.215948847,0.3534776932,-0.5221396081,0.4259565285,0.6574844957,-0.7903821786,0.2925026754,0.4708864004,0.3557339749,0.4670542687,0.4809190645,0.7465255654,-0.9500311615,-0.654462409,-0.3077855262,-0.9664145903,-1.2225131744,0.6787403594,0.0899452636,0.1285929526,0.4601982729,-0.933225574,0.3013563394,-0.1485910713,-0.7950489559,-0.0348088871,-0.0072190841,-0.2296107788,0.3594850509,0.3995867909,-0.8049054324,-1.1602520637,-0.3794969106,-1.088694432,-0.1770830776,-1.0061458969,-0.1746691232,0.5594276529,-0.8141089091,-0.4311708953,-0.2691115022,-0.0097419754,-0.1218750697,-0.2284776357,-0.9508576854,0.238244303,-0.0678145705,-0.4553652245,0.4998560263,0.0641742064,-0.7945356537,-0.7401485873,-0.6762430637,0.7109202767,0.4311697192,-0.1252258941,0.1437046965,-1.1789735741,-0.0868532592,-0.2423266831,0.7373381446,0.367441649,-0.7006990789,0.1839568841,-0.6232345657,0.63545778,0.0373539359,-0.845527604,-0.2697664615,-0.9864089646,0.7867642578,-0.3479768196,-0.8173894698,0.0885728728,-0.2735342114,0.1079092935,0.0550097119,-0.6164605516,-1.1163996174,0.2444863732,-0.758370985,-0.9794616521,0.2228508333,-0.8759555207,-0.9011410721,-0.2131831683,-0.2451285382,0.418118721,0.5610539492,-0.5287638753,-0.9787129925,0.2242328727,0.0263812621,-1.1617070409,-0.1943396266,-0.9817997556,-0.3524050036,-64056765.477199905,-64056765.18206636,-54864209.08658813,-55513991.22713867,-55525240.48792083,-55747460.36800766,-24859003.19169448,-25280941.71085641,-24853377.538812883,-24636785.032408588,-4473916.596515698,-4257323.75128199,45003.8546722276,483817.2476675455,278473.2631277686,506318.2145595447,-24380813.451854594,-24369561.19467727,-64056764.91228567,-64056765.2239193,-64056765.48919382,-64056765.99441879,-64084892.78125464,-55303022.243183486,-55952803.59355693,-35795561.45744523,-36217498.26878824,-24859003.406501513,-24642409.28926082,-9620118.555070002,-9403525.37516404,-4257323.576913356,-4257323.124022095,-376933.6076253923,284099.9330252948,-9369772.873910336,-9358522.284762328,-58705220.84064886,-64056764.36623142,-64056764.71636559,-64056765.41416935,-64056765.06394514,-64940017.33730163,-65167860.616612054,-45016244.60943774,-45449434.13572812,-25286566.95408367,-25275315.92006632,-19273989.033248562,-19490583.80197715,-4473917.098546635,-4257323.525373074,-382557.8650103295,267223.5393068295,-9597616.26377566,-9369772.613087662,-28888482.097171087,-34450995.07682941,-64056764.01502898,-64056764.25838586,-68991996.53894146,-68991997.30798681,-59355003.13940981,-59810692.89714614,-59821942.46928274,-30432766.674428415,-30649361.294689108,-20134739.05399119,-20340081.86792081,-19490582.847758356,-19490584.26801568,-388183.5881033897,45003.8404471005,50629.2881633295,706035.3513465492,-29110702.522354923,-29099451.352222152,-58488626.20110683,-68991997.98330732,-68991998.2149018,-68991997.38920262
   -68991996.68881121,-69231093.13725324,-59166535.03769669,-40086638.907452226,-39875668.94928427,-29788611.358831327,-29788610.466188136,-19068645.783968925,-19490582.568538204,-10258650.286763897,-10258649.396222997,-388183.3672680031,45004.0400261361,-5306539.7723522065,-4428915.043781405,-38753322.65740672,-39175260.08548171,-68991996.655527,-68991998.14843322,-54066375.98443609,-88732928.38161103,-33984300.97062323,-33984299.964646116,-29106338.79608258,-29453624.467788298,-29456411.614355505,-29573565.193554904,-13187933.09250448,-13416669.401744219,-13186539.214906065,-13070777.674681278,-2377618.1089723427,-2261855.33396766,11143.3832122073,244060.020153095,131085.7551279984,249632.6775749458,-12945265.063440869,-12942479.571779352,-33984300.53005739,-33984300.16332951,-33984301.15130633,-33984300.9143021,-33991266.26210181,-29339256.781792324,-29686542.07389897,-18994773.14708411,-19223510.69257555,-13187932.127848858,-13072171.323261008,-5108091.719487974,-4992330.5879028505,-2261855.3751112707,-2261856.0886630095,-217594.093129723,132478.0604002458,-4983972.54190792,-4981186.038499519,-31140849.42931004,-33984299.641275875,-33984299.78849928,-33984300.33551411,-33984299.89203092,-34451527.64572004,-34570074.62072136,-23879700.097512398,-24111223.732720647,-13418062.004195035,-13415277.824407596,-10224542.26903429,-10340303.174920572,-2377616.3609670815,-2261854.505664596,-218985.7667245365,128299.2875182729,-5102518.927175247,-4983970.857362713,-15331239.242946532,-18289058.74369074,-33984300.911383115,-33984301.209440604,-36600406.70427872,-36600406.29551566,-31488135.546113405,-31725230.5328832,-31728017.140120335,-16148537.425648581,-16264299.761008825,-10686196.004508942,-10799170.63545499,-10340302.778828599,-10340302.525543341,-220378.3375319805,11144.9108862579,12538.0753109505,361216.2480489016,-15448395.396114623,-15445609.595994223,-31025088.981937017,-36600406.83816299,-36600406.9702253,-36600406.34257374,-36600406.12215066,-36721740.60075128,-31379339.55070245,-21264987.904550806,-21150618.803508937,-15802644.485647872,-15802645.92359408,-10111564.881904438,-10340303.173815794,-5452590.994466971,-5452590.326506282,-220380.2293041209,11144.0097143124,-2832305.0985918636,-2366472.169687899,-20562059.413823377,-20790796.8921517,-36600405.66996627,-36600405.80427026,-28670077.76021699,-47064832.98148784,-726762.3588566533,-726762.1498134786,-623217.0967325846,-631395.7851494055,-631473.002145743,-634237.6068816925,-282286.0216765073,-287660.2913268211,-282247.127074355,-279520.6360658637,-50314.0901018915,-47587.4306201811,308.9448918278,5798.9356963112,3150.5139107256,5952.7717410143,-276526.0450115227,-276448.6441133259,-726762.8069091704,-726761.8002199162,-726762.9987600634,-726761.8655480178,-726954.5208064656,-628707.9921192812,-636885.7880741796,-407716.5608738848,-413092.3853134019,-282286.3579416667,-279559.7261716099,-108957.9507588089,-106232.3649878442,-47587.4569818582,-47587.0857491958,-5067.388026029,3188.8396736838,-106001.9499480545,-105924.8447808179,-665467.8531103786,-726762.2225714144,-726762.7293748021,-726761.4096150073,-726761.9822090341,-737783.2188473516,-740586.024867344,-511455.0667905697,-516907.3102456346,-287698.842857409,-287623.0253503624,-218149.676482773,-220875.9787839135,-50313.6140710174,-47586.4898413342,-5106.0660725422,3072.9481202815,-108803.9022443906,-106000.9641869107,-327068.8544895322,-391052.7517486337,-726763.1243906085,-726761.6278732138,-782717.8108782487,-782718.3596722467,-673644.9876832402,-679251.997169122,-679329.7730693324,-346346.3355666006,-349071.6661353571,-229015.0652518071,-231665.2713619812,-220874.7709934884,-220874.3986576282,-5144.3429452365,307.4378654041,346.9753873652,8564.3732106433,-329833.4333433835,-329757.6910210804,-662739.2661441701,-782718.8685528449,-782717.936535926,-782718.50147829,-782718.4134281024,-785598.5043008274,-671112.6018402843,-455535.5732113632,-452848.5330441488,-338205.2662651993,-338205.4587357076,-215500.1711487423,-220874.4593978496,-117060.9107014439,-117059.8384776555,-5144.8995023322,308.2992029489,-60986.0523865158,-50005.1262019793,-438947.1491579735,-444322.319870331,-782719.3944750713,-782719.13013778,-612976.4353249788,-1006548.020904077,-0.1344148869,-0.3104098424,0.2574245727,0.0158349037,-0.1028165588,-0.8681572499,-0.9374564592,0.3707632738,-0.7675896782,-0.8273113374,-0.8910445873,-0.1992073157,0.923300016,-0.9920832438,0.1988467086,-0.502362502,-0.2080528129,-0.146198755,-0.2466067444,0.5834301406,0.5274069939,-0.7825123924,-0.7790124263,0.565364761,0.8924560687,-0.0179840479,-0.2406113503,-0.1417762203,-0.3644667234,0.2052047147,-0.2027479078,-0.7051059237,-0.9260434888,0.9557519466,-0.905981929,-0.8810125125,0.9111420851,-0.6507247584,-0.9740776778,0.4081269381,0.2673191123,-0.49694334,-0.1246791482,-0.4544012617,-0.3663888238,-0.1039557156,-0.7313979393,-0.0528688739,0.98943109,0.8948878193,-0.050426701,-0.1356314832,-0.9002287234,0.017605919,-0.0385247321,0.7490001618,-0.401421193,-0.332832342,-0.2070839255,-0.5228594702,0.6952339555,-0.3712106184,-0.6677043705,-0.0976140677,-0.0450703468,0.1334327571,0.9377217693,-0.778262996,-0.5754352234,-0.1993022304,-0.9532721869,0.0157694684,0.9248292865,0.1940916951,0.6882857516,0.4971008744,-0.2719833608,0.080020623,0.500195386,-0.6866070793,-0.7923340836,-0.0982403147,0.1480027709,-0.1501480459,-0.65265321,-0.4196872764,0.4310286415,0.6576706303,-0.2718691872,-0.0833095045,0.9357184926,0.9155260711,-0.1366514731,0.3083851246,-0.8301327272,0.0569202172,-0.1446854109,0.1105731046,-0.4770621111,-0.6480222308,-0.3137156366,-1.0995296374,-55832734.227818534,-55832734.56161647,-47816224.08594032,-48381509.95242554,-48388550.4508138,-48580500.021371126,-21665807.701755054,-22035622.09349275,-21662286.134243324,-21473857.38549663,-3905239.1038604486,-3716809.5118369553,28168.4644213981,408546.024931579,227158.2595175562,422628.9846578446,-21260781.821278885,-21253740.06763893,-55832733.60976857,-55832734.30968641,-55832733.96275107,-55832734.98812217,-55850339.51590573,-48196601.231413454,-48761887.28904845,-31196789.034688856,-31566604.466248117,-21665807.087493706,-21477379.14106311,-8389847.823056765,-8201419.543879164,-3716810.0661204276,-3716810.0414294675,-341647.5983276214,230679.7819972582,-8180292.665206929,-8173251.877703644,-51166739.95284133,-55832734.941368654,-55832734.18350693,-55832734.424428895,-55832734.439758316,-56597012.64876896,-56792482.29884571,-39230904.373016044,-39607763.43917231,-22039143.529942818,-22032101.958049763,-16800819.87313105,-16989249.898810267,-3905238.8651243807,-3716810.45548105,-345169.1093034375,220117.5092877483,-8375764.485727295,-8180292.846206232,-25187146.513716415,-30038050.578787096,-55832733.657381944,-55832735.169346415,-60132435.846353956,-60132435.06053009,-51732024.58125308,-52122966.32888604,-52130008.21836218,-26523752.604529493,-26712179.90481879,-17551014.0282423,-17732401.545023117,-16989249.395713836,-16989248.32989058,-348688.7983357257,28166.6725838583,31687.8845376007,600495.3145097092,-25379096.515711263,-25372055.88392781,-50978310.18948064,-60132435.18461163,-60132436.35116994,-60132436.02158601,-60132436.39549184,-60334948.69873869,-51561201.1258991,-34934725.98027802,-34749817.46600614,-25961986.780233853,-25961986.716482554,-16619434.643332837,-16989249.50353595,-8948092.041401375,-8948090.831883373,-348690.5211015599,28166.5100812645,-4637827.703632995,-3877071.9919531653,-33783028.04323535,-34152842.56752104,-60132435.352872275,-60132435.02202295,-47113757.09037524,-77331238.03077288,-0.6409899948,0.4865608875,-0.5195828171,0.64913804,0.1905243733,-0.3345183863,-0.2620074628,0.3109489713,-0.8532114146,-0.888558649,-1.1664225908,-0.1350115132,-0.0941391173,-0.7669789072,-0.139895671,-0.0294434378,-1.3372869463,-0.4401008555,-0.6295641867,-0.6563655632,-1.0221045874,-0.9852737542,0.1434782657,-0.4988295928,0.3343118134,0.5748313774,0.0223474697,-1.0630657998,0.3925175272,-1.0579172653,-1.0420575629,-0.672740459,0.6792702176,-0.4488158183,-1.0087831531,-0.3602587717,-0.206862019,-0.6210436804,-0.0004457254,-0.1265211014,-0.6037405321,-0.2685935559,-1.1141051984,-0.7182216623,-1.0987171376,-0.0205237905,-0.7715475114,-0.9689212174,0.3300078665,-0.2419747033,-0.3781280566,-1.0490734234,-0.0878768227,0.0974060037,0.1184744137,0.5112979655,-0.5080323805,-1.276699748,0.4136332283,0.0916258183,0.1345136667,-0.7774321444,-0.1113474426,0.3686847198,0.1425271193,-0.9619250812,0.3978173507,-0.611277543,-1.0077528025,-1.0150651359,0.0262331737,0.1709458598,-0.4760933631,-0.2228475285,0.0092452219,0.434475743,-0.0775212979,-0.1981388991,0.310006619,-1.4782758024,-1.408660771,0.2148470482,0.6250917836,-0.7193096078,0.0083638849,-0.6021421505,-0.821994784,0.7566635611,0.6188870091,-0.2887248264,0.5733513658,0.4580946746,-1.0773388527,0.430908567,0.2407213463,-0.8556232614,0.2879338633,0.2129721483,-0.725008487,-0.772073124,-0.7754029144,-0.4406727164,0.185465066,-1.2650110182,-0.0843204203,0.3140922454,-0.2328642988,-0.5203213516,-0.9458678056,0.1756254509,0.5684478013,0.4274496391,0.2081732768,-0.5463615581,-1.2221105688,0.1903465821,0.2083790806,0.3998974649,-0.4480572919,-0.1965862105,-0.0097970369,-1.6131076748,-0.5258041298,-1.3249575648,-0.2782233227,-0.1869333456,-0.7566596797,0.3171449328,-0.6582273188,-0.4158719613,-0.3670365475,-0.0756487929,0.0252223197,-1.2394077205,-0.5108690972,-1.0226482437,-1.3349057848,-0.0439288153,0.137650683,0.0882695786,0.0339065205,-0.1629560297,-1.1978872175,-0.5249022355,-1.0312802009,0.5621109734,-0.1792137125,-0.382083593,-0.2783726836,0.3793835576,-0.542376397,-1.1979973201,-0.3152730728,-0.430286141,-0.3570928204,0.3710883083,0.1372456403,-1.4115529884,-1.2746045381,-0.1013791842,-0.3408472674,-0.5216572998,-0.0992097767,0.1314573907,-0.2079175174,-0.7050022784,-1.1651133232,-0.5916678499,0.6276401448,-0.0582342558,0.094460149,-0.068465475,-1.1293406946,-0.7477149937,-1.2331471818,0.6544519779,-0.1612611092,-0.7340582694,-0.0623963178,-0.3744472682,-0.7658597676,-0.2061651709,-1.496209718,-0.8651145202,-0.6401763711,-0.4085006478,0.2368470279,-0.3850046204,0.3903377906,-0.7731903369,0.3861259115,-1.1385773546,0.3861296769,0.2395372055,-0.9640498447,-0.4826510782,-1.2425942678,0.2303796601,-0.2924235649,-0.9983116647,-0.2646557441,-0.9331827693,-1.0176305238,-0.710065064,-45470799.557833366,-45470798.43579736,-38945010.22619253,-39408049.34285265,-39414039.03903869,-39571379.01703166,-17645879.726317216,-17948583.147797685,-17642885.338603135,-17488537.36861211,-3178234.1307049217,-3023888.395653301,23955.0484508412,335640.7220427346,187282.9742147001,347619.2203303021,-17313232.768431716,-17307243.882133164,-45470799.71783106,-45470799.13101405,-45470799.0537938,-45470799.16831548,-45485770.39368705,-39256698.403305285,-39719737.595002666,-25412427.76907461,-25715131.63282137,-17645878.406066682,-17491531.98247829,-6831486.273056243,-6677139.671311508,-3023887.9220600883,-3023887.6876899526,-278749.4175965006,190277.3245327821,-6659175.399561983,-6653185.9762834925,-41669189.09117598,-45470799.53562172,-45470799.742160715,-45470799.255006656,-45470798.280299716,-46097168.20190155,-46257502.98715484,-31953187.686877385,-32261881.25972211,-17951578.171557017,-17945589.34024524,-13680939.92462072,-13835285.327258853,-3178235.886574953,-3023888.474289206,-281743.4534398917,181295.3673215239,-6819510.464992761,-6659173.965104287,-20509433.587993547,-24462394.232290193,-45470798.52368942,-45470798.24906767,-48972699.35227878,-48972699.287274055,-42132227.69963318,-42452899.32789917,-42458888.37315485,-21604828.933963537,-21759175.2571053,-14295332.226629552,-14443689.093467075,-13835285.4899399,-13835285.863538232,-284737.621072785,23955.6224144655,26948.9126737093,492981.5253136535,-20666773.807343587,-20660784.199936934,-41514841.97536253,-48972698.60113597,-48972699.144721024,-48972699.14549223,-48972697.90478016,-49139022.8117029,-41992853.03741408,-28454283.140471596,-28302929.924059484,-21144784.261979185,-21144784.42148038,-13532582.152450608,-13835286.24550786,-7288537.718817361,-7288536.648284719,-284737.6275911092,23953.7193036034,-3777655.714830139,-3154280.955932723,-27510238.604475867,-27812941.904070865,-48972699.53795142,-48972698.95527831,-38370279.39795242,-62980302.51209357,-1.1943309508,0.436932367,-0.9749596703,0.6072144321,-0.0700936337,-0.0191182832,0.3580089552,-0.9859622549,0.4952505401,0.3038328902,-0.4137671353,0.459568058,0.1167832555,-0.2907353331,-1.212784419,-1.1589237256,-0.8375344774,0.3803258254,0.5401731361,0.1444878155,0.0934287194,-0.7497432265,-1.253057156,-0.3049994978,-1.2205214072,-1.110689579,-0.2189851337,0.2508318953,0.1633401794,-0.2490336125,-0.1330288921,0.2292741344,-0.4206530684,-1.0809259051,-0.6675577196,-0.9301645462,-0.4931945349,-0.4039618304,-1.0357166576,-0.548497006,0.1185969962,-0.434592505,-0.4620412466,0.6626436446,-0.0667653371,0.290447567,0.1411223869,-0.0526531208,-0.5629716788,-0.3520119069,-0.2856891896,-1.0644693775,-1.1581074781,0.0482718339,0.684419856,0.0711130096,0.7035185436,-0.1969481515,-1.2577198008,-0.6101458053,-0.5519445975,0.4871785942,-1.0766013676,-0.8591124922,-0.8089462253,0.2520163528,-0.8354108159,0.1389197634,0.2642627928,-0.9211323198,0.7936160631,0.0178827624,0.5173424353,-0.7779569513,-0.9713285672,-0.2813525274,0.4330719851,0.4294649343,-0.3558159264,0.5468795579,-0.423949321,0.498147808,-1.2610579136,0.3562718646,-0.6107508056,0.641874834,0.220233212,-1.1274623302,0.5199054396,0.0978546475,-0.5704228407,0.1259917036,-1.0669047995,-0.3434822229,0.0027056278,0.6030962379,-0.1285966662,0.4792246213,-1.2795099578,-0.7075916421,-0.9701770059,-0.2117301053,0.4675376689,0.465058134,-0.1602199827,0.3429010571,-0.7026918488,-1.0499651559,-0.8432920073,-0.3596615572,-0.9615128127,-0.778580342,-0.8751358176,-0.3052821823,0.1836224839,-0.3577169453,0.1258199333,-0.1476435961,-0.3517922537,0.4508537493,-0.0130365551,0.2899111709,-0.0813063122,0.1980935717,-0.0217978594,-0.1540206087,-0.44977086,0.4823671392,-0.8839759443,-0.7245611703,-0.1021037676,0.0993488221,-1.11557146,0.8248980574,-0.9401251072,0.0466592804,-1.0545264988,0.2791537374,-0.8073584469,-1.4033738432,-1.431527077,-0.0550065534,0.345509057,0.1375704295,-0.6250065404,-0.3693818794,0.5116212396,0.3539368998,-1.1391315641,0.6140085908,-0.0056946548,0.2502700167,0.726729249,-0.7793613481,-0.5474820707,-1.1894209763,0.3824203228,0.5468312971,0.0383477941,-0.8259080265,-0.0349515132,-0.1959968824,-0.9499640666,-1.4469344988,-0.5150401285,0.5764708126,-0.0755321032,-0.9230469026,0.7267974672,0.542102074,-0.1363949123,-1.1108726694,0.7838548171,0.0254337241,-0.332653488,0.505898497,0.4304282964,-1.3178966343,-0.2921530216,-1.0469434107,-1.4578921507,-0.1062067085,-0.6501885365,-1.4627217077,-0.8920093462,0.4864503897,-0.8854084411,-0.5359895697,-0.9968154132,-0.2586744785,0.1880873296,-0.1889729647,0.2640056631,-1.2161248735,-0.0388739634,-0.9733523149,0.4971313361,-0.4339724463,-0.8661376535,-0.6155101765,-1.3190848033,-0.15187023,-0.0337519986,-0.6772026412,-1229691612687681400000000000000,-1229691612687681400000000000000,-1043006464459045800000000000000,-1045504641259271400000000000000,-1045504641259282900000000000000,-1046337366859364000000000000000,-473791038172265700000000000000,-475456489372404500000000000000,-473791038172259900000000000000,-472958312572184700000000000000,-92926211314265610000000000000,-92093485714190380000000000000,46249830410907160,1665451200202526500000000000,832725600138841300000000000,1665451200225651400000000000,-472125586972069000000000000000,-472125586972057400000000000000,-1229691612687681400000000000000,-1229691612687681400000000000000,-1229691612687681400000000000000,-1229691612687681400000000000000,-1229691612687710300000000000000,-1044671915659202100000000000000,-1047170092459427700000000000000,-667137991201514600000000000000,-668803442401653400000000000000,-473791038172265700000000000000,-472958312572190500000000000000,-188350599428780100000000000000,-187517873828704870000000000000,-92093485714190380000000000000,-92093485714190380000000000000,-1665451200092683400000000000,832725600144622500000000000,-187517873828670180000000000000,-187517873828658640000000000000,-1133434498973103200000000000000,-1229691612687681400000000000000,-1229691612687681400000000000000,-1229691612687681400000000000000,-1229691612687681400000000000000,-1233022515087999500000000000000,-1233855240688086400000000000000,-853823139430178800000000000000,-855488590630329300000000000000,-475456489372410300000000000000,-475456489372398740000000000000,-376701198857595000000000000000,-377533924457670200000000000000,-92926211314265610000000000000,-92093485714190380000000000000,-1665451200098464600000000000,832725600127278800000000000,-188350599428757000000000000000,-187517873828670180000000000000,-565051798286369400000000000000,-662141637601017000000000000000,-1229691612687681400000000000000,-1229691612687681400000000000000,-1324283275202126200000000000000,-1324283275202126200000000000000,-1135932675773328900000000000000,-1137598126973502400000000000000,-1137598126973513900000000000000,-570880877486924800000000000000,-571713603087000000000000000000,-380032101257890100000000000000,-380864826857953760000000000000,-377533924457670200000000000000,-377533924457670200000000000000,-1665451200104245800000000000,46249830410907168,52031059212270584,2498176800283555600000000000,-565884523886450360000000000000,-565884523886438800000000000000,-1132601773373028100000000000000,-1324283275202126200000000000000,-1324283275202126200000000000000,-1324283275202126200000000000000,-1324283275202126200000000000000,-1325116000802225000000000000000,-1135099950173282600000000000000,-759231476915739600000000000000,-758398751315670200000000000000,-568382700686704940000000000000,-568382700686704940000000000000,-375868473257531400000000000000,-377533924457670200000000000000,-190848776228994320000000000000,-190848776228994320000000000000,-1665451200104245800000000000,46249830410907168,-96257113714531950000000000000,-92926211314219360000000000000,-754235123315253700000000000000,-755900574515392600000000000000,-1324283275202126200000000000000,-1324283275202126200000000000000,-1039807045048265900000000000000,-1702649925259906700000000000000,-2.3151709781,-2.4438478199,-1.0089364499,-0.4956605956,-0.3016583257,-0.1183827313,0.1619361019,-0.9742066741,-0.3370538895,-1.252109467,-0.3201679472,-0.1476430936,-0.9169722854,-1.0113844372,-1.8518392466,-0.3750891644,-0.8826788655,-0.8757688603,-0.7175475601,-1.4078279332,-2.3419382435,-1.5824014965,-0.3104829296,-0.8395915376,-0.5889852551,-0.9013831294,-0.9651436763,-1.0484594533,-0.577413107,-0.1498192557,-0.3180693877,-1.5215404108,-1.6177631611,-2.0146140191,-1.4404919479,-1.126559764,-2.2379877749,-1.3983145723,-1.751056694,-0.5856290533,-1.8408767911,-1.0160850292,-0.8399667518,-0.2179929339,-0.4341019803,-0.7903646501,0.7228892778,-1.1610463371,-0.882672253,-0.1032519623,-1.0233435236,-0.1698171893,-0.9525880145,-0.701135854,-1.294061034,-0.7244796919,-1.3475154687,-2.178851236,-0.7869864456,-1.4777928465,-1.9123963431,-1.2749904549,-1.8662704547,0.5651831676,-0.4436635737,0.8923239167,0.9233244124,-0.4291364335,0.0264857301,-1.2768413814,-1.815631579,-1.3925603205,-1.5501369703,-0.2598910483,-1.1812235661,-0.4183740725,-1.6870088654,-2.3670939917,-1.4226873349,-1.8645126094,-1.5875757918,-0.7931736913,-0.7939567621,-1.1015189282,-0.3381225028,-0.9944903082,0.2037782215,0.3129000691,-0.2892220761,-1.5809791059,-1.1010865879,-1.8433977385,-1.1849618369,-0.9024224229,-1.4868521429,-1.5240390132,-1.7485786521,-0.7131553462,-2.3078307976,-1.5874045324,-0.124893324,-0.9116302708,0.7866557231,0.0957232035,-0.402496034,0.0189148492,-0.1518868649,-0.4927447415,-0.41385708,0.7490740046,0.8161176567,0.1875968319,-0.9763045806,0.5762089272,0.7632534718,0.6529231818,-0.9851504004,0.0715845852,-0.3325621654,-1.0035106209,-0.5885622522,0.256869104,-0.6318791289,0.0654578587,0.849758643,-0.5068308195,-0.6268566949,0.6098868848,0.4225177739,-0.3847382052,-0.3765493253,-0.441315768,-0.6415229644,0.085473892,0.9905996151,-0.9665993412,-0.7889887533,-0.1670024904,0.6120823943,-0.5245897944,-0.8707835523,0.4172160343,0.9079021101,-0.8864921194,-0.0775421494,0.0652270368,0.6671669685,-0.7285553943,0.3905998752,-0.2489862102,0.1692865102,0.5545928309,0.587639776,-0.298843756,0.7716112447,-0.5119422607,-0.9241089127,-0.0179596394,0.5673039069,-0.3626341318,-0.2051513662,0.8279057975,0.8166787755,-0.9301131017,-0.8648795917,0.055171489,0.5427792888,0.1527238472,0.2555272069,-0.2828051987,-0.4529553787,-0.4462617324,-0.3425138031,0.9708081055,-0.9856917042,0.251992511,-0.6879517207,-0.669400559,0.0154842042,0.075728406,-0.0814321303,0.3096650849,0.3333909755,-0.8541277085,0.04839378,-0.4880607839,-0.5653579094,0.5163039324,-0.0401374331,0.4409394757,-0.9352495897,0.252473387,-0.9424372857,-0.7874534823,-0.0043542831,0.9915770487,0.4006032445,-0.1575029587,-0.8424165718,0.7939386664,-0.6478930275,-0.0062502509,-1.992961123,-3.0317343824,-0.1276310794,-1.1466388503,0.064615744,-0.1878755795,0.3040982454,0.0391737117,-1.2482528621,0.2023818823,-1.3832065645,0.0064736303,-1.1590881105,-0.4204639838,-0.3460118313,-0.2590554683,-1.5670145239,-0.1014383221,-0.3590530176,-1.4423780443,-0.500476724,-0.9964540911,-1.6033370138,-0.2883362846,-0.129648161,-0.7348621924,-1.3856671026,-0.0997969081,0.4291895804,0.4957236582,-0.3755508471,-1.1996232896,-1.3402806251,-1.1738106157,-0.2140402693,0.2742116945,-1.2638457458,-0.2526961728,-0.2415741479,-0.7617803861,-0.1011321185,-0.4452049077,-0.9039772736,-0.1842183609,-1.6732060044,-1.0001701465,-0.1540125049,-0.3408823346,0.537373827,0.2619469459,0.3533578795,-1.1319871723,0.4350323254,-0.0690764346,0.2907569759,0.3630164869,0.2349428078,-1.0693088513,-0.8177863602,-0.010859347,-1.4180473857,-0.2304842759,-1.5528847142,-1.5209454227,-0.345147619,-1.2669832519,-0.9096914181,0.1636607264,-0.9475827327,0.3832945049,0.417015153,-0.0392400595,-0.9046025123,-0.6810028691,-1.0523688408,-1.2496529718,-1.5303733654,0.2070390678,-1.5628709432,-0.0196619196,-0.6422383724,-0.1661230907,-0.8919865805,-1.7804459115,-0.8772315444,0.1015429993,-0.7709453106,-1.2300839782,-0.9358635319,-1.2865281105,-0.6767325255,-1.353772748,0.362824943,-0.0989711344,-1.3334465138,0.2392298102,-0.3721161921,-1.2475617424,-0.1651231399,-0.2088165741,-1.6756918641,-0.379786754,-1.0963616979,-0.6660557086,-72273988.69906871,-72273988.9504879,-61904448.21820832,-62638058.86168445,-62652333.839346915,-62904009.285854734,-28048814.802296765,-28523611.16371802,-28041674.95836081,-27797138.972295985,-5044656.749189131,-4800119.664778284,57104.6044034102,553315.3256504338,323055.1343884449,581867.5868003394,-27502636.336744647,-27488360.339768875,-72273990.27254778,-72273989.93988442,-72273989.63086757,-72273989.64744401,-72309680.17062642,-62400659.64433264,-63134270.38455461,-40388926.57469247,-40863722.90450211,-28048813.58426254,-27804277.32765759,-10851477.266347177,-10606940.666863155,-4800120.755274131,-4800120.279800411,-417693.6153726953,330192.4252713686,-10564112.205353161,-10549835.985565284,-66236907.76866599,-72273990.34570155,-72273990.340961,-72273990.40612338,-72273989.25359327,-73273549.70061527,-73532364.08173792,-50794158.164549835,-51283230.86428031,-28530750.237445455,-28516472.732084744,-21745781.477996558,-21990319.90135002,-5044656.747664807,-4800120.744793488,-424831.1479905878,308778.421060315,-10822925.709479082,-10564113.27095876,-32590121.81738947,-38864602.29933125,-72273989.5015815,-72273988.61001877,-77843409.55334038,-77843409.86209458,-66970518.541253336,-67488144.71269256,-67502420.2308817,-34337568.374963485,-34582105.77399626,-22716791.17629219,-22947053.109567106,-21990318.654893022,-21990318.646970093,-431969.2834578019,57103.7945367735,64241.7769456182,804990.8373486977,-32841796.851084847,-32827520.976561587,-65992372.36040874,-77843410.21751702,-77843411.34094132,-77843409.63525005,-77843409.4439348,-78116498.54651316,-66761672.87461357,-45231873.56097941,-44994475.06523952,-33611097.2805933,-33611096.124385744,-21515522.168579675,-21990318.459660444,-11570812.523309078,-11570812.067581706,-431970.3094068617,57103.6548208583,-5979976.379462211,-4987553.07517964,-43721825.12248295,-44196624.19469634,-77843410.97025354,-77843410.35493113,-61008491.51706284,-100121094.73641008,-82781523.89845692,-82781524.40037276,-70894285.55938226,-71740805.9862121,-71742474.67694768,-72025482.67225464,-32121991.662098967,-32684667.91197502,-32121157.306462444,-31838983.986869227,-5800446.956970372,-5518272.401215193,6677.6885914615,571857.6654397346,291354.3628526975,575198.3300386008,-31550967.110791165,-31549297.295592647,-82781525.06828637,-82781525.05319263,-82781524.89300449,-82781525.14749245,-82785698.56611392,-71459466.27206503,-72305986.2513977,-46268283.1191634,-46830960.295548014,-32121992.58963594,-31839818.12903642,-12450749.517553734,-12168577.335819336,-5518273.424895332,-5518273.830810793,-555999.4146395025,292189.6059698705,-12163567.67340998,-12161898.3112942,-75850717.72385,-82781524.14932959,-82781524.73019852,-82781523.98526084,-82781524.42691842,-83912721.47063176,-84196563.56591588,-58159694.070768476,-58724039.9772578,-32685501.66617151,-32683834.2276733,-24906506.562260825,-25188680.103617955,-5800446.592714024,-5518273.83797764,-556833.8369035666,289685.7098717421,-12447411.14320723,-12163567.723734304,-37356421.911185786,-44568566.5288146,-82781525.54885475,-82781524.3710708,-89150490.44562249,-89150490.33712867,-76697237.13631074,-77264922.05470018,-77266591.56902859,-39335806.48726368,-39617978.85117243,-26034364.199851245,-26314868.324321073,-25188680.68848833,-25188680.174880806,-557669.1997697795,6677.0181052309,7512.9208822443,854866.6262145668,-37639429.715147816,-37637760.46542621,-75568544.46347056,-89150489.50021319,-89150491.24181256,-89150489.40836948,-89150489.96779236,-89436002.65378444,-76419237.49591029,-51791563.39634282,-51510225.167245366,-38490121.66073009,-38490121.82501704,-24626003.429650716,-25188681.38245031,-13295599.125080582,-13295598.503116565,-557668.3295120604,6676.8075431514,-6924128.599540131,-5793768.007122462,-50093517.42343257,-50656194.93408433,-89150491.04713424,-89150490.15429342,-69815250.64153567,-114626360.17038648,-1.4726775137,-0.2372969536,-0.4520659444,-0.9211578818,-0.6111859935,-1.1079882466,-0.5043676267,-0.283935714,0.5507252413,0.3650457481,-0.8649981637,0.2608720142,-0.8565260156,-0.0755229055,-0.5173436235,-1.7828096585,-1.6466410412,-1.38135764,-2.1699556939,-0.2757653292,-1.6720051851,-1.6035608152,-0.7165799349,-0.1963764553,0.0927476549,-1.2408265472,-0.7198931358,-0.8494433739,-1.319317146,-0.5220180545,-1.1490219713,0.4605535617,-0.6374304301,0.4507677126,-0.0199364708,-0.3746712425,-1.1078991826,-0.3854152046,-0.6866119284,-1.7250173076,-1.2687734,-2.0422140414,-0.4079626488,-0.1831346046,-0.119940006,0.2752536541,-0.9837912677,-0.7523327605,-0.4685691257,0.1278340283,0.5408635955,-0.4605108187,-0.7236421458,-1.5211902938,-0.8777983939,-1.1340021987,-0.7151971165,-1.1141120092,-1.7162021091,-0.8534065004,-1.5242954737,-1.1543551901,-1.5634935965,-0.218558958,-1.187833161,-0.3854599353,-0.301204318,-0.4075395805,-1.4144138504,-0.5242547292,-0.6988122802,-0.9260282974,-0.8209094286,-1.4449063269,-0.192886167,-1.5103579314,-1.6557513463,-1.2804704756,-0.8379781249,-0.8472180059,-1.4612714835,-0.3998562248,-1.1719849147,-0.8289571297,-1.2894687059,0.3560382523,-1.0762712018,0.0550822184,-1.393011496,-0.1113510247,0.2148298945,-0.6875462434,0.1086556872,0.2627686048,-1.209306831,-0.7881659256,-1.8708136386,-0.5296027237,-0.3772897612,-1.7124107195,-1.0756880792,-0.2650224968,-0.6124385356,-0.5837132821,-0.4463849084,-0.4870613168,-0.4778419848,-0.4699714829,-0.3003056075,-0.0369118379,-1.121439787,0.0538490462,0.4487130919,-0.4123164867,-1.0041742227,-0.8096387233,-0.2540939177,-1.2509945385,0.4793213607,-0.5084450557,0.0837602713,-0.6395342429,-0.0319746181,-1.129447777,0.3935397024,-0.9295353948,-1.1505220417,0.4431932803,-1.0636035129,-1.0724553773,0.0676539768,0.7225086661,-0.5449732347,-0.2255257359,-0.3685752249,-1.0184860996,0.2655956616,-0.4443822759,-1.0394914166,-0.9441142617,-1.0080589035,0.1235981091,-0.7911564992,0.2380526085,0.3659663529,-0.7857631326,0.5651055868,-0.7947606133,-0.5292031129,0.0121296333,0.5256532968,0.3063859676,-1.043410014,-1.1156191825,0.1547531426,-1.2602747832,-0.5136908133,0.2756175791,-0.6160788823,-0.5866405275,-0.000928176,-0.7696692399,-0.8944826044,-1.1522861709,-0.3347894791,-0.8536376073,0.0174212049,0.6300936213,-0.0979001687,-0.6605222723,0.5996564478,0.6993505274,0.371541478,0.7678798803,0.2039486934,0.00179377,-0.2636047643,0.5016624793,0.1579086491,-1.022424815,-0.9231907068,-0.5587661028,-0.1890883004,-0.9237344508,0.6947529551,0.0300168234,0.517054231,-0.065236387,0.2019727173,-0.5527099605,-0.7326969412,0.6590024095,0.443466298,-1.175659811,-0.4232066536,-0.8595108848,0.5015695409,0.0295187963,0.3914632429,-0.395146454,-0.2731484413,-0.8222081495,0.1308785019,-1.1173392306,0.158193488,-0.5973230758,0.1160662817,-0.3751119711,0.0378336762,-0.5545756113,0.8833377421,-0.8486524503,-0.9398352548,0.4943305256,-0.1218891551,-0.2360740029,-0.2346783659,0.3092916674,-0.6839691023,-0.108819752,0.0878378394,-0.6030166462,0.6225029609,-0.5024416848,-0.996302907,-0.3464791466,-0.3938452737,-0.0043594939,0.2866343256,0.5748408499,-0.3990853531,-0.6367997739,-0.6465569839,0.2410706924,0.527648189,-0.3047895722,-0.7124830621,0.8851851836,-0.2296856315,0.7816654856,-0.4567262886,-0.5906726976,0.6914969076,-0.7867091828,0.0643471975,-0.621920588,0.7954956367,-0.3101475841,0.7948411677,-0.0046593283,0.5991869023,-0.3968843007,-0.8228557672,-0.5345055121,0.5779081891,0.0037785465,-0.6820779182,0.3717235236,-0.5000431944,0.8393754079,0.1768796859,-0.0061838998,-0.5605566067,0.468106461,-0.2618942884,0.3867674175,0.9559391609,0.0613594259,0.0155225916,0.5425093723,-0.5377097242,-0.5547774555,-0.5238405259,-0.9457990502,-0.0379873084,0.2063371826,0.4665321069,-0.407273012,-0.7843862339,0.6805752863,-0.4859877889,-0.1608294998,0.8741681444,-0.2796569092,-0.8565867261,-0.6857029055,0.6810303105,0.6196969637,-0.0665936298,